\data\
ngram 1=154224

\1-grams:
-1.097721	's
-1.398751	aa
-1.574843	ab
-1.699781	ac
-1.796691	ad
-1.875873	ae
-1.942819	af
-2.000811	ag
-2.051964	ah
-2.097721	ai
-2.139114	aj
-2.176903	ak
-2.211665	al
-2.243849	am
-2.273813	an
-2.301841	ao
-2.328170	ap
-2.352994	aq
-2.376475	ar
-2.398751	as
-2.419941	at
-2.440144	au
-2.459449	av
-2.477933	aw
-2.495661	ax
-2.512695	ay
-2.529085	az
-2.544879	ba
-2.560119	bb
-2.574843	bc
-2.589083	bd
-2.602871	be
-2.616235	bf
-2.629200	bg
-2.641789	bh
-2.654024	bi
-2.665923	bj
-2.677505	bk
-2.688786	bl
-2.699781	bm
-2.710505	bn
-2.720971	bo
-2.731190	bp
-2.741174	bq
-2.750934	br
-2.760479	bs
-2.769819	bt
-2.778963	bu
-2.787917	bv
-2.796691	bw
-2.805292	bx
-2.813725	by
-2.821997	bz
-2.830115	ca
-2.838084	cb
-2.845909	cc
-2.853596	cd
-2.861149	ce
-2.868573	cf
-2.875873	cg
-2.883051	ch
-2.890113	ci
-2.897062	cj
-2.903901	ck
-2.910635	cl
-2.917265	cm
-2.923796	cn
-2.930230	co
-2.936570	cp
-2.942819	cq
-2.948980	cr
-2.955054	cs
-2.961044	ct
-2.966953	cu
-2.972783	cv
-2.978535	cw
-2.984212	cx
-2.989816	cy
-2.995348	cz
-3.000811	da
-3.006206	db
-3.011535	dc
-3.016799	dd
-3.022001	de
-3.027140	df
-3.032220	dg
-3.037241	dh
-3.042204	di
-3.047111	dj
-3.051964	dk
-3.056763	dl
-3.061509	dm
-3.066204	dn
-3.070849	do
-3.075445	dp
-3.079993	dq
-3.084493	dr
-3.088947	ds
-3.093357	dt
-3.097721	du
-3.102043	dv
-3.106322	dw
-3.110559	dx
-3.114755	dy
-3.118911	dz
-3.123027	ea
-3.127105	eb
-3.131145	ec
-3.135148	ed
-3.139114	ee
-3.143044	ef
-3.146939	eg
-3.150800	eh
-3.154626	ei
-3.158419	ej
-3.162179	ek
-3.165907	el
-3.169603	em
-3.173268	en
-3.176903	eo
-3.180507	ep
-3.184081	eq
-3.187626	er
-3.191143	es
-3.194631	et
-3.198092	eu
-3.201525	ev
-3.204931	ew
-3.208311	ex
-3.211665	ey
-3.214993	ez
-3.218295	fa
-3.221573	fb
-3.224826	fc
-3.228055	fd
-3.231260	fe
-3.234442	ff
-3.237600	fg
-3.240736	fh
-3.243849	fi
-3.246940	fj
-3.250010	fk
-3.253057	fl
-3.256084	fm
-3.259089	fn
-3.262074	fo
-3.265039	fp
-3.267983	fq
-3.270908	fr
-3.273813	fs
-3.276698	ft
-3.279565	fu
-3.282413	fv
-3.285242	fw
-3.288053	fx
-3.290846	fy
-3.293621	fz
-3.296378	ga
-3.299118	gb
-3.301841	gc
-3.304547	gd
-3.307236	ge
-3.309909	gf
-3.312565	gg
-3.315205	gh
-3.317829	gi
-3.320438	gj
-3.323031	gk
-3.325608	gl
-3.328170	gm
-3.330717	gn
-3.333250	go
-3.335767	gp
-3.338271	gq
-3.340759	gr
-3.343234	gs
-3.345695	gt
-3.348141	gu
-3.350574	gv
-3.352994	gw
-3.355400	gx
-3.357793	gy
-3.360172	gz
-3.362539	ha
-3.364893	hb
-3.367234	hc
-3.369563	hd
-3.371879	he
-3.374183	hf
-3.376475	hg
-3.378755	hh
-3.381023	hi
-3.383279	hj
-3.385523	hk
-3.387756	hl
-3.389977	hm
-3.392188	hn
-3.394387	ho
-3.396574	hp
-3.398751	hq
-3.400917	hr
-3.403073	hs
-3.405217	ht
-3.407352	hu
-3.409475	hv
-3.411589	hw
-3.413692	hx
-3.415785	hy
-3.417868	hz
-3.419941	ia
-3.422004	ib
-3.424057	ic
-3.426101	id
-3.428135	ie
-3.430160	if
-3.432175	ig
-3.434181	ih
-3.436178	ii
-3.438165	ij
-3.440144	ik
-3.442114	il
-3.444074	im
-3.446026	in
-3.447969	io
-3.449904	ip
-3.451830	iq
-3.453747	ir
-3.455656	is
-3.457557	it
-3.459449	iu
-3.461333	iv
-3.463209	iw
-3.465077	ix
-3.466937	iy
-3.468789	iz
-3.470633	ja
-3.472470	jb
-3.474298	jc
-3.476119	jd
-3.477933	je
-3.479738	jf
-3.481537	jg
-3.483328	jh
-3.485111	ji
-3.486887	jj
-3.488656	jk
-3.490418	jl
-3.492173	jm
-3.493921	jn
-3.495661	jo
-3.497395	jp
-3.499122	jq
-3.500842	jr
-3.502555	js
-3.504262	jt
-3.505961	ju
-3.507654	jv
-3.509341	jw
-3.511021	jx
-3.512695	jy
-3.514362	jz
-3.516023	ka
-3.517677	kb
-3.519325	kc
-3.520967	kd
-3.522603	ke
-3.524233	kf
-3.525856	kg
-3.527474	kh
-3.529085	ki
-3.530691	kj
-3.532290	kk
-3.533884	kl
-3.535472	km
-3.537054	kn
-3.538630	ko
-3.540201	kp
-3.541766	kq
-3.543326	kr
-3.544879	ks
-3.546428	kt
-3.547970	ku
-3.549508	kv
-3.551040	kw
-3.552566	kx
-3.554087	ky
-3.555603	kz
-3.557114	la
-3.558619	lb
-3.560119	lc
-3.561614	ld
-3.563104	le
-3.564589	lf
-3.566069	lg
-3.567543	lh
-3.569013	li
-3.570478	lj
-3.571938	lk
-3.573393	ll
-3.574843	lm
-3.576288	ln
-3.577728	lo
-3.579164	lp
-3.580595	lq
-3.582021	lr
-3.583443	ls
-3.584860	lt
-3.586272	lu
-3.587680	lv
-3.589083	lw
-3.590482	lx
-3.591876	ly
-3.593266	lz
-3.594651	ma
-3.596032	mb
-3.597408	mc
-3.598781	md
-3.600148	me
-3.601512	mf
-3.602871	mg
-3.604226	mh
-3.605577	mi
-3.606924	mj
-3.608266	mk
-3.609605	ml
-3.610939	mm
-3.612269	mn
-3.613595	mo
-3.614917	mp
-3.616235	mq
-3.617549	mr
-3.618859	ms
-3.620166	mt
-3.621468	mu
-3.622766	mv
-3.624061	mw
-3.625351	mx
-3.626638	my
-3.627921	mz
-3.629200	na
-3.630476	nb
-3.631747	nc
-3.633015	nd
-3.634280	ne
-3.635540	nf
-3.636797	ng
-3.638051	nh
-3.639301	ni
-3.640547	nj
-3.641789	nk
-3.643028	nl
-3.644264	nm
-3.645496	nn
-3.646725	no
-3.647950	np
-3.649171	nq
-3.650390	nr
-3.651604	ns
-3.652816	nt
-3.654024	nu
-3.655229	nv
-3.656430	nw
-3.657628	nx
-3.658823	ny
-3.660014	nz
-3.661202	oa
-3.662387	ob
-3.663569	oc
-3.664748	od
-3.665923	oe
-3.667095	of
-3.668264	og
-3.669430	oh
-3.670593	oi
-3.671753	oj
-3.672909	ok
-3.674063	ol
-3.675213	om
-3.676361	on
-3.677505	oo
-3.678646	op
-3.679785	oq
-3.680920	or
-3.682053	os
-3.683182	ot
-3.684309	ou
-3.685432	ov
-3.686553	ow
-3.687671	ox
-3.688786	oy
-3.689898	oz
-3.691007	pa
-3.692114	pb
-3.693218	pc
-3.694318	pd
-3.695417	pe
-3.696512	pf
-3.697604	pg
-3.698694	ph
-3.699781	pi
-3.700866	pj
-3.701947	pk
-3.703026	pl
-3.704103	pm
-3.705176	pn
-3.706247	po
-3.707316	pp
-3.708382	pq
-3.709445	pr
-3.710505	ps
-3.711563	pt
-3.712619	pu
-3.713671	pv
-3.714722	pw
-3.715769	px
-3.716815	py
-3.717857	pz
-3.718898	qa
-3.719935	qb
-3.720971	qc
-3.722003	qd
-3.723034	qe
-3.724062	qf
-3.725087	qg
-3.726110	qh
-3.727131	qi
-3.728149	ql
-3.729165	qm
-3.730179	qn
-3.731190	qo
-3.732199	qp
-3.733205	qq
-3.734209	qr
-3.735211	qs
-3.736211	qt
-3.737208	qu
-3.738203	qv
-3.739195	qw
-3.740186	qx
-3.741174	qy
-3.742160	qz
-3.743144	ra
-3.744125	rb
-3.745104	rc
-3.746081	rd
-3.747056	re
-3.748029	rf
-3.748999	rg
-3.749968	rh
-3.750934	ri
-3.751898	rj
-3.752860	rk
-3.753820	rl
-3.754777	rm
-3.755733	rn
-3.756686	ro
-3.757638	rp
-3.758587	rq
-3.759534	rr
-3.760479	rs
-3.761422	rt
-3.762363	ru
-3.763302	rv
-3.764239	rw
-3.765174	rx
-3.766107	ry
-3.767038	rz
-3.767967	sa
-3.768894	sb
-3.769819	sc
-3.770742	sd
-3.771663	se
-3.772582	sf
-3.773500	sg
-3.774415	sh
-3.775328	si
-3.776240	sj
-3.777149	sk
-3.778057	sl
-3.778963	sm
-3.779866	sn
-3.780768	so
-3.781668	sp
-3.782567	sq
-3.783463	sr
-3.784358	ss
-3.785250	st
-3.786141	su
-3.787030	sv
-3.787917	sw
-3.788803	sx
-3.789686	sy
-3.790568	sz
-3.791448	ta
-3.792327	tb
-3.793203	tc
-3.794078	td
-3.794951	te
-3.795822	tf
-3.796691	tg
-3.797559	th
-3.798425	ti
-3.799289	tj
-3.800152	tk
-3.801013	tl
-3.801872	tm
-3.802729	tn
-3.803585	to
-3.804439	tp
-3.805292	tq
-3.806142	tr
-3.806991	ts
-3.807839	tt
-3.808684	tu
-3.809529	tv
-3.810371	tw
-3.811212	tx
-3.812051	ty
-3.812889	tz
-3.813725	ua
-3.814559	ub
-3.815392	uc
-3.816223	ud
-3.817053	ue
-3.817881	uf
-3.818707	ug
-3.819532	uh
-3.820355	ui
-3.821177	uj
-3.821997	uk
-3.822816	ul
-3.823633	um
-3.824449	un
-3.825263	uo
-3.826075	up
-3.826886	uq
-3.827696	ur
-3.828504	us
-3.829310	ut
-3.830115	uu
-3.830919	uv
-3.831721	uw
-3.832521	ux
-3.833320	uy
-3.834118	uz
-3.834914	va
-3.835709	vb
-3.836502	vc
-3.837294	vd
-3.838084	ve
-3.838873	vf
-3.839660	vg
-3.840446	vh
-3.841231	vi
-3.842014	vj
-3.842796	vk
-3.843577	vl
-3.844356	vm
-3.845133	vn
-3.845909	vo
-3.846684	vp
-3.847458	vq
-3.848230	vr
-3.849000	vs
-3.849770	vt
-3.850538	vu
-3.851304	vv
-3.852070	vw
-3.852834	vx
-3.853596	vy
-3.854357	vz
-3.855117	wa
-3.855876	wb
-3.856633	wc
-3.857389	wd
-3.858144	we
-3.858897	wf
-3.859649	wg
-3.860400	wh
-3.861149	wi
-3.861897	wj
-3.862644	wk
-3.863390	wl
-3.864134	wm
-3.864877	wn
-3.865619	wo
-3.866359	wp
-3.867099	wq
-3.867837	wr
-3.868573	ws
-3.869309	wt
-3.870043	wu
-3.870776	wv
-3.871508	ww
-3.872238	wx
-3.872968	wy
-3.873696	wz
-3.874423	xa
-3.875148	xb
-3.875873	xc
-3.876596	xd
-3.877318	xe
-3.878039	xf
-3.878758	xg
-3.879477	xh
-3.880194	xi
-3.880910	xj
-3.881625	xk
-3.882339	xl
-3.883051	xm
-3.883763	xn
-3.884473	xo
-3.885182	xp
-3.885890	xq
-3.886596	xr
-3.887302	xs
-3.888007	xt
-3.888710	xu
-3.889412	xv
-3.890113	xw
-3.890813	xx
-3.891512	xy
-3.892209	xz
-3.892906	ya
-3.893601	yb
-3.894296	yc
-3.894989	yd
-3.895681	ye
-3.896372	yf
-3.897062	yg
-3.897751	yh
-3.898438	yi
-3.899125	yj
-3.899811	yk
-3.900495	yl
-3.901178	ym
-3.901861	yn
-3.902542	yo
-3.903222	yp
-3.903901	yr
-3.904579	ys
-3.905256	yt
-3.905932	yu
-3.906607	yv
-3.907281	yw
-3.907954	yx
-3.908626	yy
-3.909296	yz
-3.909966	za
-3.910635	zb
-3.911302	zc
-3.911969	zd
-3.912635	ze
-3.913299	zf
-3.913963	zg
-3.914625	zh
-3.915287	zi
-3.915947	zj
-3.916607	zk
-3.917265	zl
-3.917923	zm
-3.918579	zn
-3.919235	zo
-3.919889	zp
-3.920543	zr
-3.921196	zs
-3.921847	zt
-3.922498	zu
-3.923147	zw
-3.923796	zx
-3.924444	zy
-3.925091	zz
-3.925736	a's
-3.926381	aaa
-3.927025	aab
-3.927668	aac
-3.928310	aad
-3.928951	aae
-3.929591	aaf
-3.930230	aag
-3.930868	aah
-3.931506	aai
-3.932142	aaj
-3.932777	aal
-3.933412	aam
-3.934045	aan
-3.934678	aao
-3.935310	aap
-3.935941	aar
-3.936570	aas
-3.937199	aat
-3.937827	aau
-3.938455	aav
-3.939081	aaw
-3.939706	aay
-3.940331	aba
-3.940954	abb
-3.941577	abc
-3.942199	abd
-3.942819	abe
-3.943439	abf
-3.944058	abg
-3.944677	abh
-3.945294	abi
-3.945910	abl
-3.946526	abm
-3.947141	abn
-3.947755	abo
-3.948368	abp
-3.948980	abq
-3.949591	abr
-3.950201	abs
-3.950811	abt
-3.951420	abu
-3.952027	abv
-3.952634	abx
-3.953240	aby
-3.953846	aca
-3.954450	acb
-3.955054	acc
-3.955657	acd
-3.956259	ace
-3.956860	acf
-3.957460	acg
-3.958059	ach
-3.958658	aci
-3.959256	ack
-3.959853	acl
-3.960449	acm
-3.961044	acn
-3.961639	aco
-3.962232	acp
-3.962825	acq
-3.963417	acr
-3.964009	acs
-3.964599	act
-3.965189	acu
-3.965778	acv
-3.966366	acw
-3.966953	acx
-3.967540	acy
-3.968125	ada
-3.968710	adb
-3.969294	adc
-3.969878	add
-3.970460	ade
-3.971042	adf
-3.971623	adg
-3.972203	adh
-3.972783	adi
-3.973361	adj
-3.973939	adk
-3.974516	adl
-3.975093	adm
-3.975668	adn
-3.976243	ado
-3.976817	adp
-3.977391	adr
-3.977963	ads
-3.978535	adt
-3.979106	adu
-3.979676	adv
-3.980246	adw
-3.980815	adx
-3.981383	ady
-3.981950	adz
-3.982517	aea
-3.983083	aeb
-3.983648	aec
-3.984212	aed
-3.984776	aee
-3.985339	aef
-3.985901	aeg
-3.986462	aei
-3.987023	aek
-3.987583	ael
-3.988142	aem
-3.988701	aen
-3.989259	aeo
-3.989816	aep
-3.990372	aer
-3.990928	aes
-3.991483	aet
-3.992037	aew
-3.992591	afa
-3.993144	afb
-3.993696	afc
-3.994248	afd
-3.994798	afe
-3.995348	aff
-3.995898	afg
-3.996447	afi
-3.996995	afk
-3.997542	afl
-3.998088	afm
-3.998634	afn
-3.999180	afo
-3.999724	afp
-4.000268	afr
-4.000811	afs
-4.001354	aft
-4.001896	afu
-4.002437	afv
-4.002977	aga
-4.003517	agb
-4.004056	agc
-4.004595	agd
-4.005133	age
-4.005670	agf
-4.006206	agg
-4.006742	agh
-4.007277	agi
-4.007812	agl
-4.008346	agm
-4.008879	agn
-4.009412	ago
-4.009943	agp
-4.010475	agr
-4.011005	ags
-4.011535	agt
-4.012065	agu
-4.012593	agw
-4.013121	agy
-4.013649	aha
-4.014175	ahc
-4.014701	ahd
-4.015227	ahe
-4.015752	ahf
-4.016276	ahh
-4.016799	ahi
-4.017322	ahk
-4.017845	ahl
-4.018366	ahm
-4.018887	ahn
-4.019408	aho
-4.019928	ahp
-4.020447	ahq
-4.020965	ahr
-4.021483	ahs
-4.022001	aht
-4.022517	ahu
-4.023033	aia
-4.023549	aib
-4.024064	aic
-4.024578	aid
-4.025092	aie
-4.025605	aif
-4.026117	aig
-4.026629	aii
-4.027140	aik
-4.027651	ail
-4.028161	aim
-4.028670	ain
-4.029179	aio
-4.029687	aip
-4.030195	air
-4.030702	ais
-4.031209	ait
-4.031715	aiu
-4.032220	aix
-4.032724	aja
-4.033229	ajc
-4.033732	aje
-4.034235	aji
-4.034737	ajj
-4.035239	ajo
-4.035740	ajp
-4.036241	ajr
-4.036741	ajs
-4.037241	aju
-4.037739	aka
-4.038238	akb
-4.038736	akc
-4.039233	ake
-4.039729	akg
-4.040225	akh
-4.040721	aki
-4.041216	akl
-4.041710	akm
-4.042204	ako
-4.042697	akp
-4.043190	akr
-4.043682	aks
-4.044174	akt
-4.044665	aku
-4.045155	ala
-4.045645	alb
-4.046134	alc
-4.046623	ald
-4.047111	ale
-4.047599	alf
-4.048086	alg
-4.048573	alh
-4.049059	ali
-4.049544	alj
-4.050029	alk
-4.050514	all
-4.050998	alm
-4.051481	aln
-4.051964	alo
-4.052446	alp
-4.052928	alr
-4.053409	als
-4.053890	alt
-4.054370	alu
-4.054850	alv
-4.055329	aly
-4.055807	alz
-4.056285	ama
-4.056763	amb
-4.057240	amc
-4.057716	amd
-4.058192	ame
-4.058668	amf
-4.059142	amg
-4.059617	amh
-4.060091	ami
-4.060564	aml
-4.061037	amm
-4.061509	amn
-4.061981	amo
-4.062452	amp
-4.062923	amr
-4.063393	ams
-4.063863	amt
-4.064332	amu
-4.064801	amv
-4.065269	amx
-4.065737	amy
-4.066204	ana
-4.066671	anb
-4.067137	anc
-4.067603	and
-4.068068	ane
-4.068533	anf
-4.068997	ang
-4.069461	anh
-4.069924	ani
-4.070387	anj
-4.070849	ank
-4.071311	anl
-4.071772	anm
-4.072233	ann
-4.072693	ano
-4.073153	anp
-4.073612	anr
-4.074071	ans
-4.074530	ant
-4.074988	anu
-4.075445	anw
-4.075902	anx
-4.076358	any
-4.076814	anz
-4.077270	aoa
-4.077725	aob
-4.078179	aoc
-4.078633	aod
-4.079087	aoe
-4.079540	aof
-4.079993	aog
-4.080445	aoi
-4.080896	aok
-4.081348	aol
-4.081798	aom
-4.082249	aon
-4.082698	aop
-4.083148	aor
-4.083597	aos
-4.084045	aot
-4.084493	aou
-4.084941	aow
-4.085388	apa
-4.085834	apb
-4.086280	apc
-4.086726	apd
-4.087171	ape
-4.087616	apf
-4.088060	apg
-4.088504	aph
-4.088947	api
-4.089390	apj
-4.089833	apk
-4.090275	apl
-4.090716	apm
-4.091158	apn
-4.091598	apo
-4.092038	app
-4.092478	apr
-4.092918	aps
-4.093357	apt
-4.093795	apu
-4.094233	apw
-4.094671	apx
-4.095108	apy
-4.095544	aqa
-4.095981	aqi
-4.096417	aql
-4.096852	aqu
-4.097287	ara
-4.097721	arb
-4.098155	arc
-4.098589	ard
-4.099022	are
-4.099455	arf
-4.099887	arg
-4.100319	arh
-4.100751	ari
-4.101182	ark
-4.101613	arl
-4.102043	arm
-4.102472	arn
-4.102902	aro
-4.103331	arp
-4.103759	arq
-4.104187	arr
-4.104615	ars
-4.105042	art
-4.105469	aru
-4.105896	arv
-4.106322	arw
-4.106747	arx
-4.107172	ary
-4.107597	arz
-4.108021	asa
-4.108445	asb
-4.108869	asc
-4.109292	asd
-4.109714	ase
-4.110137	asf
-4.110559	asg
-4.110980	ash
-4.111401	asi
-4.111822	ask
-4.112242	asl
-4.112662	asm
-4.113081	asn
-4.113500	aso
-4.113919	asp
-4.114337	asq
-4.114755	asr
-4.115172	ass
-4.115589	ast
-4.116006	asu
-4.116422	asv
-4.116838	asw
-4.117253	asx
-4.117668	asy
-4.118083	ata
-4.118497	atb
-4.118911	atc
-4.119324	atd
-4.119737	ate
-4.120150	atf
-4.120562	atg
-4.120974	ath
-4.121385	ati
-4.121796	atk
-4.122207	atl
-4.122617	atm
-4.123027	atn
-4.123437	ato
-4.123846	atp
-4.124255	atr
-4.124663	ats
-4.125071	att
-4.125479	atu
-4.125886	atv
-4.126293	atw
-4.126699	atx
-4.127105	aua
-4.127511	aub
-4.127916	auc
-4.128321	aud
-4.128726	aue
-4.129130	auf
-4.129534	aug
-4.129937	auh
-4.130340	auk
-4.130743	aul
-4.131145	aum
-4.131547	aun
-4.131949	aup
-4.132350	aur
-4.132751	aus
-4.133151	aut
-4.133551	auv
-4.133951	aux
-4.134350	ava
-4.134749	avb
-4.135148	avc
-4.135546	ave
-4.135944	avg
-4.136342	avi
-4.136739	avl
-4.137135	avm
-4.137532	avn
-4.137928	avo
-4.138324	avp
-4.138719	avr
-4.139114	avs
-4.139509	avt
-4.139903	avx
-4.140297	avy
-4.140690	awa
-4.141084	awb
-4.141476	awc
-4.141869	awd
-4.142261	awe
-4.142653	awf
-4.143044	awg
-4.143435	awh
-4.143826	awi
-4.144217	awk
-4.144607	awl
-4.144996	awm
-4.145386	awn
-4.145775	awo
-4.146163	awp
-4.146551	awr
-4.146939	aws
-4.147327	awt
-4.147714	awu
-4.148101	aww
-4.148488	axa
-4.148874	axe
-4.149260	axi
-4.149645	axl
-4.150030	axs
-4.150415	aya
-4.150800	aye
-4.151184	ayi
-4.151568	ayn
-4.151951	ayo
-4.152334	ayr
-4.152717	ays
-4.153100	ayu
-4.153482	ayy
-4.153864	aza
-4.154245	azi
-4.154626	azn
-4.155007	azo
-4.155387	azt
-4.155768	azu
-4.156147	azz
-4.156527	b's
-4.156906	baa
-4.157285	bab
-4.157663	bac
-4.158041	bad
-4.158419	bae
-4.158797	baf
-4.159174	bag
-4.159551	bah
-4.159927	bai
-4.160303	baj
-4.160679	bak
-4.161055	bal
-4.161430	bam
-4.161805	ban
-4.162179	bao
-4.162554	bap
-4.162927	bar
-4.163301	bas
-4.163674	bat
-4.164047	bau
-4.164420	baw
-4.164792	bax
-4.165164	bay
-4.165536	baz
-4.165907	bba
-4.166278	bbb
-4.166649	bbc
-4.167019	bbd
-4.167389	bbe
-4.167759	bbg
-4.168129	bbi
-4.168498	bbk
-4.168867	bbl
-4.169235	bbm
-4.169603	bbn
-4.169971	bbp
-4.170339	bbq
-4.170706	bbr
-4.171073	bbs
-4.171440	bbt
-4.171806	bbw
-4.172172	bby
-4.172538	bca
-4.172903	bcb
-4.173268	bcc
-4.173633	bcd
-4.173998	bce
-4.174362	bcf
-4.174726	bcg
-4.175089	bch
-4.175453	bci
-4.175815	bcl
-4.176178	bcm
-4.176541	bcn
-4.176903	bcp
-4.177264	bcr
-4.177626	bcs
-4.177987	bct
-4.178348	bcu
-4.178708	bcz
-4.179069	bda
-4.179429	bdb
-4.179788	bdc
-4.180148	bdd
-4.180507	bde
-4.180865	bdg
-4.181224	bdi
-4.181582	bdk
-4.181940	bdl
-4.182298	bdm
-4.182655	bdo
-4.183012	bdp
-4.183369	bdr
-4.183725	bds
-4.184081	bdt
-4.184437	bdu
-4.184793	bea
-4.185148	bec
-4.185503	bed
-4.185857	bee
-4.186212	bef
-4.186566	beg
-4.186920	beh
-4.187273	bei
-4.187626	bek
-4.187979	bel
-4.188332	bem
-4.188684	ben
-4.189037	beo
-4.189388	bep
-4.189740	ber
-4.190091	bes
-4.190442	bet
-4.190793	bev
-4.191143	bew
-4.191493	bex
-4.191843	bey
-4.192192	bez
-4.192542	bfa
-4.192891	bfc
-4.193239	bfd
-4.193588	bfe
-4.193936	bff
-4.194284	bfg
-4.194631	bfi
-4.194979	bfl
-4.195326	bfm
-4.195672	bfn
-4.196019	bfp
-4.196365	bfr
-4.196711	bfs
-4.197057	bft
-4.197402	bfv
-4.197747	bga
-4.198092	bgb
-4.198436	bgc
-4.198781	bge
-4.199125	bgg
-4.199468	bgh
-4.199812	bgi
-4.200155	bgl
-4.200498	bgm
-4.200841	bgn
-4.201183	bgo
-4.201525	bgp
-4.201867	bgr
-4.202208	bgs
-4.202550	bgt
-4.202891	bha
-4.203232	bhb
-4.203572	bhc
-4.203912	bhd
-4.204252	bhe
-4.204592	bhf
-4.204931	bhi
-4.205270	bhk
-4.205609	bhm
-4.205948	bho
-4.206286	bhp
-4.206624	bhs
-4.206962	bht
-4.207300	bhu
-4.207637	bia
-4.207974	bib
-4.208311	bic
-4.208648	bid
-4.208984	bie
-4.209320	bif
-4.209656	big
-4.209991	bih
-4.210326	bii
-4.210661	bij
-4.210996	bik
-4.211330	bil
-4.211665	bim
-4.211999	bin
-4.212332	bio
-4.212666	bip
-4.212999	bir
-4.213332	bis
-4.213665	bit
-4.213997	biu
-4.214329	biv
-4.214661	bix
-4.214993	biz
-4.215324	bjd
-4.215655	bjj
-4.215986	bjp
-4.216317	bjs
-4.216647	bjt
-4.216977	bka
-4.217307	bkb
-4.217637	bkk
-4.217966	bkn
-4.218295	bks
-4.218624	bla
-4.218953	blb
-4.219281	blc
-4.219609	bld
-4.219937	ble
-4.220265	blf
-4.220592	blg
-4.220919	bli
-4.221246	blk
-4.221573	blm
-4.221899	bln
-4.222226	blo
-4.222551	blp
-4.222877	blr
-4.223203	bls
-4.223528	blt
-4.223853	blu
-4.224177	blv
-4.224502	bly
-4.224826	bma
-4.225150	bmb
-4.225474	bmc
-4.225797	bmd
-4.226121	bme
-4.226444	bmf
-4.226766	bmg
-4.227089	bmi
-4.227411	bmj
-4.227733	bmm
-4.228055	bmo
-4.228377	bmp
-4.228698	bmr
-4.229019	bms
-4.229340	bmt
-4.229661	bmv
-4.229981	bmw
-4.230301	bmx
-4.230621	bna
-4.230941	bnb
-4.231260	bnc
-4.231579	bnd
-4.231898	bne
-4.232217	bnf
-4.232536	bng
-4.232854	bni
-4.233172	bnl
-4.233490	bnn
-4.233807	bnp
-4.234125	bnr
-4.234442	bns
-4.234759	bnt
-4.235075	bnw
-4.235392	bny
-4.235708	boa
-4.236024	bob
-4.236340	boc
-4.236655	bod
-4.236971	boe
-4.237286	bof
-4.237600	bog
-4.237915	boh
-4.238229	boi
-4.238544	boj
-4.238857	bok
-4.239171	bol
-4.239485	bom
-4.239798	bon
-4.240111	boo
-4.240424	bop
-4.240736	bor
-4.241048	bos
-4.241361	bot
-4.241672	bou
-4.241984	bov
-4.242296	bow
-4.242607	box
-4.242918	boy
-4.243229	boz
-4.243539	bpa
-4.243849	bpc
-4.244159	bpd
-4.244469	bpf
-4.244779	bpg
-4.245088	bph
-4.245398	bpi
-4.245707	bpl
-4.246015	bpm
-4.246324	bpo
-4.246632	bpp
-4.246940	bpr
-4.247248	bps
-4.247556	bpt
-4.247864	bra
-4.248171	brb
-4.248478	brc
-4.248785	brd
-4.249091	bre
-4.249398	brf
-4.249704	brg
-4.250010	bri
-4.250315	brk
-4.250621	brl
-4.250926	brm
-4.251231	brn
-4.251536	bro
-4.251841	brp
-4.252145	brr
-4.252450	brs
-4.252754	brt
-4.253057	bru
-4.253361	brw
-4.253664	bry
-4.253968	brz
-4.254270	bsa
-4.254573	bsb
-4.254876	bsc
-4.255178	bsd
-4.255480	bse
-4.255782	bsf
-4.256084	bsg
-4.256385	bsh
-4.256687	bsi
-4.256988	bsk
-4.257289	bsl
-4.257589	bsm
-4.257890	bsn
-4.258190	bso
-4.258490	bsp
-4.258790	bsr
-4.259089	bss
-4.259389	bst
-4.259688	bsu
-4.259987	bsv
-4.260286	bsw
-4.260584	bta
-4.260883	btb
-4.261181	btc
-4.261479	btd
-4.261777	bte
-4.262074	btf
-4.262372	btg
-4.262669	bth
-4.262966	bti
-4.263262	btk
-4.263559	btl
-4.263855	btm
-4.264151	btn
-4.264447	bto
-4.264743	btp
-4.265039	btr
-4.265334	bts
-4.265629	btt
-4.265924	btu
-4.266219	btv
-4.266513	btw
-4.266808	btx
-4.267102	bua
-4.267396	bub
-4.267690	buc
-4.267983	bud
-4.268276	bue
-4.268570	buf
-4.268862	bug
-4.269155	buh
-4.269448	bui
-4.269740	buk
-4.270032	bul
-4.270324	bum
-4.270616	bun
-4.270908	bup
-4.271199	bur
-4.271490	bus
-4.271781	but
-4.272072	buu
-4.272363	bux
-4.272653	buy
-4.272943	buz
-4.273233	bva
-4.273523	bvb
-4.273813	bvi
-4.274102	bvr
-4.274391	bvs
-4.274680	bwa
-4.274969	bwb
-4.275258	bwc
-4.275546	bwf
-4.275835	bwh
-4.276123	bwi
-4.276411	bwl
-4.276698	bwp
-4.276986	bwr
-4.277273	bws
-4.277560	bwv
-4.277847	bww
-4.278134	bya
-4.278421	byd
-4.278707	bye
-4.278993	byl
-4.279279	byo
-4.279565	bys
-4.279851	byt
-4.280136	byu
-4.280421	byz
-4.280706	c's
-4.280991	caa
-4.281276	cab
-4.281560	cac
-4.281845	cad
-4.282129	cae
-4.282413	caf
-4.282697	cag
-4.282980	cah
-4.283263	cai
-4.283547	cak
-4.283830	cal
-4.284113	cam
-4.284395	can
-4.284678	cao
-4.284960	cap
-4.285242	caq
-4.285524	car
-4.285806	cas
-4.286087	cat
-4.286369	cau
-4.286650	cav
-4.286931	caw
-4.287212	cay
-4.287492	caz
-4.287773	cba
-4.288053	cbb
-4.288333	cbc
-4.288613	cbd
-4.288893	cbe
-4.289172	cbf
-4.289452	cbg
-4.289731	cbi
-4.290010	cbj
-4.290289	cbk
-4.290567	cbl
-4.290846	cbm
-4.291124	cbn
-4.291402	cbo
-4.291680	cbp
-4.291958	cbr
-4.292236	cbs
-4.292513	cbt
-4.292790	cbu
-4.293067	cbx
-4.293344	cbz
-4.293621	cca
-4.293898	ccb
-4.294174	ccc
-4.294450	ccd
-4.294726	cce
-4.295002	ccf
-4.295278	ccg
-4.295553	cch
-4.295828	cci
-4.296103	ccj
-4.296378	cck
-4.296653	ccl
-4.296928	ccm
-4.297202	ccn
-4.297477	cco
-4.297751	ccp
-4.298025	ccr
-4.298298	ccs
-4.298572	cct
-4.298845	ccu
-4.299118	ccv
-4.299392	ccw
-4.299664	cda
-4.299937	cdb
-4.300210	cdc
-4.300482	cdd
-4.300754	cde
-4.301026	cdf
-4.301298	cdg
-4.301570	cdh
-4.301841	cdi
-4.302113	cdj
-4.302384	cdk
-4.302655	cdl
-4.302926	cdm
-4.303196	cdn
-4.303467	cdo
-4.303737	cdp
-4.304007	cdq
-4.304277	cdr
-4.304547	cds
-4.304817	cdt
-4.305086	cdu
-4.305356	cdv
-4.305625	cdw
-4.305894	cdx
-4.306163	cea
-4.306431	ceb
-4.306700	cec
-4.306968	ced
-4.307236	cee
-4.307504	cef
-4.307772	ceh
-4.308040	cei
-4.308307	cel
-4.308575	cem
-4.308842	cen
-4.309109	ceo
-4.309376	cep
-4.309642	cer
-4.309909	ces
-4.310175	cet
-4.310441	ceu
-4.310708	cev
-4.310973	cex
-4.311239	cfa
-4.311505	cfb
-4.311770	cfc
-4.312035	cfd
-4.312300	cfe
-4.312565	cff
-4.312830	cfg
-4.313094	cfi
-4.313359	cfl
-4.313623	cfm
-4.313887	cfo
-4.314151	cfp
-4.314415	cfr
-4.314679	cfs
-4.314942	cft
-4.315205	cfu
-4.315468	cfx
-4.315731	cga
-4.315994	cgc
-4.316257	cgd
-4.316519	cge
-4.316782	cgf
-4.317044	cgh
-4.317306	cgi
-4.317568	cgl
-4.317829	cgm
-4.318091	cgn
-4.318352	cgp
-4.318614	cgs
-4.318875	cgt
-4.319136	cgy
-4.319396	cha
-4.319657	chb
-4.319917	chc
-4.320178	chd
-4.320438	che
-4.320698	chf
-4.320958	chg
-4.321217	chh
-4.321477	chi
-4.321736	chk
-4.321995	chl
-4.322254	chm
-4.322513	chn
-4.322772	cho
-4.323031	chp
-4.323289	chr
-4.323547	chs
-4.323805	cht
-4.324063	chu
-4.324321	chy
-4.324579	cia
-4.324836	cib
-4.325094	cic
-4.325351	cid
-4.325608	cie
-4.325865	cif
-4.326122	cig
-4.326378	cih
-4.326635	cii
-4.326891	cik
-4.327147	cil
-4.327403	cim
-4.327659	cin
-4.327915	cio
-4.328170	cip
-4.328426	cir
-4.328681	cis
-4.328936	cit
-4.329191	ciu
-4.329446	civ
-4.329700	ciw
-4.329955	cix
-4.330209	cja
-4.330463	cjc
-4.330717	cjd
-4.330971	cjs
-4.331225	ckd
-4.331479	cks
-4.331732	cky
-4.331985	cla
-4.332239	clb
-4.332492	clc
-4.332745	cld
-4.332997	cle
-4.333250	clf
-4.333502	clg
-4.333754	cli
-4.334007	clk
-4.334259	cll
-4.334510	clm
-4.334762	clo
-4.335014	clp
-4.335265	clr
-4.335516	cls
-4.335767	clt
-4.336018	clu
-4.336269	clv
-4.336520	cly
-4.336770	cma
-4.337021	cmb
-4.337271	cmc
-4.337521	cmd
-4.337771	cme
-4.338021	cmf
-4.338271	cmg
-4.338520	cmh
-4.338769	cmi
-4.339019	cmj
-4.339268	cml
-4.339517	cmm
-4.339766	cmn
-4.340014	cmo
-4.340263	cmp
-4.340511	cmr
-4.340759	cms
-4.341007	cmt
-4.341255	cmu
-4.341503	cmv
-4.341751	cna
-4.341998	cnb
-4.342246	cnc
-4.342493	cnd
-4.342740	cne
-4.342987	cnf
-4.343234	cng
-4.343481	cnh
-4.343727	cni
-4.343974	cnm
-4.344220	cnn
-4.344466	cno
-4.344712	cnp
-4.344958	cnr
-4.345204	cns
-4.345449	cnt
-4.345695	cnu
-4.345940	cnv
-4.346185	cnw
-4.346430	cny
-4.346675	coa
-4.346920	cob
-4.347164	coc
-4.347409	cod
-4.347653	coe
-4.347897	cof
-4.348141	cog
-4.348385	coh
-4.348629	coi
-4.348873	cok
-4.349116	col
-4.349360	com
-4.349603	con
-4.349846	coo
-4.350089	cop
-4.350332	coq
-4.350574	cor
-4.350817	cos
-4.351059	cot
-4.351302	cou
-4.351544	cov
-4.351786	cow
-4.352028	cox
-4.352269	coy
-4.352511	coz
-4.352753	cpa
-4.352994	cpb
-4.353235	cpc
-4.353476	cpd
-4.353717	cpe
-4.353958	cpf
-4.354199	cpg
-4.354439	cph
-4.354679	cpi
-4.354920	cpj
-4.355160	cpk
-4.355400	cpl
-4.355640	cpm
-4.355880	cpn
-4.356119	cpo
-4.356359	cpp
-4.356598	cpr
-4.356837	cps
-4.357076	cpt
-4.357315	cpu
-4.357554	cpv
-4.357793	cpw
-4.358031	cpy
-4.358270	cqb
-4.358508	cqc
-4.358746	cra
-4.358984	crb
-4.359222	crc
-4.359460	crd
-4.359698	cre
-4.359935	crf
-4.360172	crg
-4.360410	crh
-4.360647	cri
-4.360884	crj
-4.361121	crl
-4.361357	crm
-4.361594	crn
-4.361830	cro
-4.362067	crp
-4.362303	crr
-4.362539	crs
-4.362775	crt
-4.363011	cru
-4.363247	crv
-4.363482	crx
-4.363718	cry
-4.363953	csa
-4.364188	csb
-4.364423	csc
-4.364658	csd
-4.364893	cse
-4.365128	csf
-4.365362	csg
-4.365597	csh
-4.365831	csi
-4.366065	csk
-4.366299	csl
-4.366533	csm
-4.366767	csn
-4.367001	cso
-4.367234	csp
-4.367468	csr
-4.367701	css
-4.367934	cst
-4.368167	csu
-4.368400	csv
-4.368633	csw
-4.368866	csx
-4.369098	cta
-4.369331	ctb
-4.369563	ctc
-4.369795	ctd
-4.370027	cte
-4.370259	ctf
-4.370491	ctg
-4.370723	cth
-4.370954	cti
-4.371186	ctl
-4.371417	ctm
-4.371648	ctn
-4.371879	cto
-4.372110	ctp
-4.372341	ctr
-4.372572	cts
-4.372802	ctt
-4.373033	ctu
-4.373263	ctv
-4.373493	ctw
-4.373723	ctx
-4.373953	cty
-4.374183	cua
-4.374413	cub
-4.374642	cuc
-4.374872	cud
-4.375101	cue
-4.375331	cuh
-4.375560	cui
-4.375789	cul
-4.376018	cum
-4.376246	cun
-4.376475	cuo
-4.376703	cup
-4.376932	cur
-4.377160	cus
-4.377388	cut
-4.377616	cuv
-4.377844	cuz
-4.378072	cva
-4.378300	cvb
-4.378527	cvc
-4.378755	cvd
-4.378982	cve
-4.379209	cvg
-4.379436	cvi
-4.379663	cvl
-4.379890	cvm
-4.380117	cvn
-4.380343	cvo
-4.380570	cvp
-4.380796	cvr
-4.381023	cvs
-4.381249	cvt
-4.381475	cvv
-4.381701	cwa
-4.381926	cwb
-4.382152	cwc
-4.382378	cwd
-4.382603	cwe
-4.382828	cwg
-4.383054	cwi
-4.383279	cwl
-4.383504	cwm
-4.383728	cwp
-4.383953	cwr
-4.384178	cws
-4.384402	cwt
-4.384627	cwu
-4.384851	cxc
-4.385075	cxl
-4.385299	cya
-4.385523	cyc
-4.385747	cyd
-4.385971	cyl
-4.386194	cyn
-4.386418	cyo
-4.386641	cyp
-4.386864	cyr
-4.387087	cys
-4.387310	cze
-4.387533	czk
-4.387756	czw
-4.387979	d's
-4.388201	daa
-4.388424	dab
-4.388646	dac
-4.388868	dad
-4.389090	dae
-4.389312	daf
-4.389534	dag
-4.389756	dah
-4.389977	dai
-4.390199	daj
-4.390420	dak
-4.390642	dal
-4.390863	dam
-4.391084	dan
-4.391305	dao
-4.391526	dap
-4.391746	dar
-4.391967	das
-4.392188	dat
-4.392408	dau
-4.392628	dav
-4.392848	daw
-4.393068	dax
-4.393288	day
-4.393508	daz
-4.393728	dba
-4.393948	dbc
-4.394167	dbd
-4.394387	dbe
-4.394606	dbh
-4.394825	dbi
-4.395044	dbl
-4.395263	dbm
-4.395482	dbp
-4.395701	dbr
-4.395919	dbs
-4.396138	dbt
-4.396356	dbu
-4.396574	dbx
-4.396793	dbz
-4.397011	dca
-4.397229	dcb
-4.397446	dcc
-4.397664	dcd
-4.397882	dce
-4.398099	dcf
-4.398317	dcg
-4.398534	dch
-4.398751	dci
-4.398968	dcl
-4.399185	dcm
-4.399402	dcn
-4.399619	dco
-4.399836	dcp
-4.400052	dcr
-4.400269	dcs
-4.400485	dct
-4.400701	dcu
-4.400917	dda
-4.401133	ddb
-4.401349	ddc
-4.401565	ddd
-4.401781	dde
-4.401996	ddf
-4.402212	ddg
-4.402427	ddh
-4.402643	ddi
-4.402858	ddj
-4.403073	ddl
-4.403288	ddm
-4.403502	ddo
-4.403717	ddp
-4.403932	ddr
-4.404146	dds
-4.404361	ddt
-4.404575	ddu
-4.404789	dea
-4.405003	deb
-4.405217	dec
-4.405431	ded
-4.405645	dee
-4.405859	def
-4.406072	deg
-4.406286	deh
-4.406499	dei
-4.406712	dej
-4.406926	dek
-4.407139	del
-4.407352	dem
-4.407564	den
-4.407777	deo
-4.407990	dep
-4.408202	deq
-4.408415	der
-4.408627	des
-4.408839	det
-4.409051	deu
-4.409263	dev
-4.409475	dew
-4.409687	dex
-4.409899	dey
-4.410110	dez
-4.410322	dfa
-4.410533	dfb
-4.410744	dfc
-4.410956	dfd
-4.411167	dfe
-4.411378	dfg
-4.411589	dfi
-4.411799	dfl
-4.412010	dfm
-4.412221	dfn
-4.412431	dfo
-4.412641	dfp
-4.412852	dfs
-4.413062	dft
-4.413272	dfw
-4.413482	dga
-4.413692	dgb
-4.413901	dgc
-4.414111	dgd
-4.414321	dge
-4.414530	dgm
-4.414739	dgp
-4.414949	dgr
-4.415158	dgs
-4.415367	dha
-4.415576	dhb
-4.415785	dhc
-4.415993	dhd
-4.416202	dhe
-4.416411	dhi
-4.416619	dhl
-4.416827	dho
-4.417036	dhp
-4.417244	dhr
-4.417452	dhs
-4.417660	dht
-4.417868	dhu
-4.418075	dia
-4.418283	dib
-4.418491	dic
-4.418698	did
-4.418905	die
-4.419113	dif
-4.419320	dig
-4.419527	dih
-4.419734	dii
-4.419941	dik
-4.420147	dil
-4.420354	dim
-4.420561	din
-4.420767	dio
-4.420973	dip
-4.421180	dir
-4.421386	dis
-4.421592	dit
-4.421798	diu
-4.422004	div
-4.422210	diw
-4.422415	dix
-4.422621	diy
-4.422826	diz
-4.423032	dji
-4.423237	djm
-4.423442	djr
-4.423647	djs
-4.423852	djt
-4.424057	dka
-4.424262	dkk
-4.424467	dkp
-4.424671	dkr
-4.424876	dks
-4.425080	dkt
-4.425285	dla
-4.425489	dlb
-4.425693	dlc
-4.425897	dld
-4.426101	dle
-4.426305	dlf
-4.426509	dlg
-4.426712	dli
-4.426916	dll
-4.427119	dlm
-4.427323	dlo
-4.427526	dlp
-4.427729	dlr
-4.427932	dls
-4.428135	dlt
-4.428338	dlx
-4.428541	dma
-4.428744	dmb
-4.428946	dmc
-4.429149	dmd
-4.429351	dme
-4.429553	dmf
-4.429756	dmg
-4.429958	dmh
-4.430160	dmi
-4.430362	dmk
-4.430564	dml
-4.430765	dmm
-4.430967	dmn
-4.431169	dmo
-4.431370	dmp
-4.431571	dmr
-4.431773	dms
-4.431974	dmt
-4.432175	dmu
-4.432376	dmv
-4.432577	dmx
-4.432778	dmz
-4.432979	dna
-4.433179	dnb
-4.433380	dnc
-4.433580	dnd
-4.433781	dne
-4.433981	dnf
-4.434181	dng
-4.434381	dni
-4.434581	dnn
-4.434781	dno
-4.434981	dnp
-4.435181	dnr
-4.435380	dns
-4.435580	dnt
-4.435779	dnv
-4.435979	doa
-4.436178	dob
-4.436377	doc
-4.436576	dod
-4.436775	doe
-4.436974	dof
-4.437173	dog
-4.437372	doh
-4.437570	doi
-4.437769	doj
-4.437967	dok
-4.438165	dol
-4.438364	dom
-4.438562	don
-4.438760	doo
-4.438958	dop
-4.439156	dor
-4.439354	dos
-4.439551	dot
-4.439749	dou
-4.439947	dov
-4.440144	dow
-4.440341	dox
-4.440539	doy
-4.440736	doz
-4.440933	dpa
-4.441130	dpc
-4.441327	dpd
-4.441524	dpe
-4.441720	dpf
-4.441917	dpg
-4.442114	dph
-4.442310	dpi
-4.442506	dpj
-4.442703	dpl
-4.442899	dpm
-4.443095	dpn
-4.443291	dpo
-4.443487	dpp
-4.443683	dpr
-4.443879	dps
-4.444074	dpt
-4.444270	dpw
-4.444465	dra
-4.444661	drb
-4.444856	drc
-4.445051	drd
-4.445247	dre
-4.445442	drf
-4.445637	drg
-4.445831	dri
-4.446026	drk
-4.446221	drl
-4.446416	drm
-4.446610	dro
-4.446805	drp
-4.446999	drr
-4.447193	drs
-4.447387	drt
-4.447581	dru
-4.447775	drv
-4.447969	drw
-4.448163	dry
-4.448357	dsa
-4.448551	dsb
-4.448744	dsc
-4.448938	dsd
-4.449131	dse
-4.449324	dsf
-4.449518	dsg
-4.449711	dsh
-4.449904	dsi
-4.450097	dsk
-4.450290	dsl
-4.450483	dsm
-4.450675	dsn
-4.450868	dso
-4.451060	dsp
-4.451253	dsr
-4.451445	dss
-4.451638	dst
-4.451830	dsu
-4.452022	dsw
-4.452214	dta
-4.452406	dtc
-4.452598	dtd
-4.452790	dte
-4.452981	dtf
-4.453173	dtg
-4.453364	dth
-4.453556	dti
-4.453747	dtl
-4.453938	dtm
-4.454130	dtn
-4.454321	dto
-4.454512	dtp
-4.454703	dtr
-4.454894	dts
-4.455084	dtt
-4.455275	dtu
-4.455466	dtv
-4.455656	dtw
-4.455847	dua
-4.456037	dub
-4.456227	duc
-4.456417	dud
-4.456608	due
-4.456798	dug
-4.456988	duh
-4.457177	dui
-4.457367	duk
-4.457557	dul
-4.457746	dum
-4.457936	dun
-4.458125	duo
-4.458315	dup
-4.458504	dur
-4.458693	dus
-4.458882	dut
-4.459071	dux
-4.459260	duy
-4.459449	dva
-4.459638	dvb
-4.459827	dvc
-4.460015	dvd
-4.460204	dvf
-4.460392	dvi
-4.460581	dvm
-4.460769	dvp
-4.460957	dvr
-4.461145	dvs
-4.461333	dvt
-4.461521	dwa
-4.461709	dwb
-4.461897	dwc
-4.462085	dwd
-4.462272	dwg
-4.462460	dwi
-4.462647	dwm
-4.462835	dwp
-4.463022	dwr
-4.463209	dws
-4.463396	dwt
-4.463584	dxd
-4.463771	dxy
-4.463957	dye
-4.464144	dyk
-4.464331	dyl
-4.464518	dyn
-4.464704	dys
-4.464891	e's
-4.465077	eaa
-4.465264	eab
-4.465450	eac
-4.465636	ead
-4.465822	eae
-4.466008	eaf
-4.466194	eag
-4.466380	eah
-4.466566	eai
-4.466752	eal
-4.466937	eam
-4.467123	ean
-4.467308	eap
-4.467494	ear
-4.467679	eas
-4.467864	eat
-4.468049	eau
-4.468234	eav
-4.468419	eaw
-4.468604	eax
-4.468789	eba
-4.468974	ebb
-4.469159	ebc
-4.469343	ebd
-4.469528	ebe
-4.469712	ebf
-4.469897	ebi
-4.470081	ebm
-4.470265	ebo
-4.470449	ebp
-4.470633	ebr
-4.470817	ebs
-4.471001	ebt
-4.471185	ebu
-4.471369	ebv
-4.471552	eby
-4.471736	eca
-4.471920	ecb
-4.472103	ecc
-4.472286	ecd
-4.472470	ece
-4.472653	ecf
-4.472836	ecg
-4.473019	ech
-4.473202	eci
-4.473385	ecj
-4.473568	eck
-4.473751	ecl
-4.473933	ecm
-4.474116	ecn
-4.474298	eco
-4.474481	ecp
-4.474663	ecr
-4.474845	ecs
-4.475028	ect
-4.475210	ecu
-4.475392	ecw
-4.475574	eda
-4.475756	edb
-4.475937	edc
-4.476119	edd
-4.476301	ede
-4.476483	edf
-4.476664	edg
-4.476845	edh
-4.477027	edi
-4.477208	edl
-4.477389	edm
-4.477571	edn
-4.477752	edo
-4.477933	edp
-4.478114	edr
-4.478294	eds
-4.478475	edt
-4.478656	edu
-4.478836	edw
-4.479017	edx
-4.479197	edy
-4.479378	eea
-4.479558	eec
-4.479738	eed
-4.479919	eee
-4.480099	eef
-4.480279	eeg
-4.480459	eeh
-4.480638	eek
-4.480818	eel
-4.480998	eem
-4.481178	een
-4.481357	eeo
-4.481537	eep
-4.481716	eer
-4.481895	ees
-4.482075	eet
-4.482254	eew
-4.482433	eez
-4.482612	efa
-4.482791	efc
-4.482970	efd
-4.483149	efe
-4.483328	eff
-4.483506	efg
-4.483685	efi
-4.483863	efl
-4.484042	efm
-4.484220	efp
-4.484399	efs
-4.484577	eft
-4.484755	efx
-4.484933	ega
-4.485111	ege
-4.485289	egf
-4.485467	egg
-4.485645	egi
-4.485823	egl
-4.486000	egm
-4.486178	ego
-4.486355	egp
-4.486533	egr
-4.486710	egs
-4.486887	egy
-4.487065	ehc
-4.487242	ehe
-4.487419	ehf
-4.487596	ehh
-4.487773	ehi
-4.487950	ehm
-4.488126	ehr
-4.488303	ehs
-4.488480	eht
-4.488656	ehv
-4.488833	eia
-4.489009	eib
-4.489186	eic
-4.489362	eid
-4.489538	eif
-4.489714	eig
-4.489890	eil
-4.490066	eim
-4.490242	ein
-4.490418	eip
-4.490594	eir
-4.490770	eis
-4.490945	eit
-4.491121	eiu
-4.491297	ejb
-4.491472	eka
-4.491647	eke
-4.491823	ekg
-4.491998	eko
-4.492173	eks
-4.492348	eku
-4.492523	ela
-4.492698	elb
-4.492873	elc
-4.493048	eld
-4.493222	ele
-4.493397	elf
-4.493572	eli
-4.493746	elk
-4.493921	ell
-4.494095	elm
-4.494269	eln
-4.494444	elo
-4.494618	elp
-4.494792	elr
-4.494966	els
-4.495140	elt
-4.495314	elv
-4.495488	ely
-4.495661	ema
-4.495835	emb
-4.496009	emc
-4.496182	emd
-4.496356	eme
-4.496529	emf
-4.496702	emg
-4.496876	emh
-4.497049	emi
-4.497222	eml
-4.497395	emm
-4.497568	emo
-4.497741	emp
-4.497914	emr
-4.498087	ems
-4.498259	emt
-4.498432	emu
-4.498605	emv
-4.498777	emy
-4.498950	ena
-4.499122	enb
-4.499294	enc
-4.499466	end
-4.499639	ene
-4.499811	enf
-4.499983	eng
-4.500155	enh
-4.500327	eni
-4.500498	enl
-4.500670	enn
-4.500842	eno
-4.501013	enp
-4.501185	enr
-4.501357	ens
-4.501528	ent
-4.501699	enu
-4.501871	env
-4.502042	enz
-4.502213	eoc
-4.502384	eod
-4.502555	eoe
-4.502726	eof
-4.502897	eog
-4.503068	eoi
-4.503238	eol
-4.503409	eom
-4.503580	eon
-4.503750	eop
-4.503921	eor
-4.504091	eos
-4.504262	eot
-4.504432	eow
-4.504602	eoy
-4.504772	epa
-4.504942	epb
-4.505112	epc
-4.505282	epd
-4.505452	epe
-4.505622	epf
-4.505792	epg
-4.505961	eph
-4.506131	epi
-4.506300	epl
-4.506470	epm
-4.506639	epn
-4.506809	epo
-4.506978	epp
-4.507147	epr
-4.507316	eps
-4.507485	ept
-4.507654	eqn
-4.507823	eqs
-4.507992	eqt
-4.508161	equ
-4.508330	era
-4.508499	erb
-4.508667	erc
-4.508836	erd
-4.509004	ere
-4.509173	erf
-4.509341	erg
-4.509509	erh
-4.509678	eri
-4.509846	erk
-4.510014	erl
-4.510182	erm
-4.510350	ern
-4.510518	ero
-4.510686	erp
-4.510853	err
-4.511021	ers
-4.511189	ert
-4.511356	eru
-4.511524	erv
-4.511691	erw
-4.511859	ery
-4.512026	esa
-4.512193	esb
-4.512360	esc
-4.512528	esd
-4.512695	ese
-4.512862	esf
-4.513029	esg
-4.513196	esh
-4.513362	esi
-4.513529	esk
-4.513696	esl
-4.513862	esm
-4.514029	esn
-4.514195	eso
-4.514362	esp
-4.514528	esq
-4.514695	esr
-4.514861	ess
-4.515027	est
-4.515193	esu
-4.515359	esv
-4.515525	eta
-4.515691	etb
-4.515857	etc
-4.516023	etd
-4.516188	ete
-4.516354	etf
-4.516520	eth
-4.516685	eti
-4.516851	etl
-4.517016	etm
-4.517181	etn
-4.517347	eto
-4.517512	etp
-4.517677	etr
-4.517842	ets
-4.518007	ett
-4.518172	etu
-4.518337	etv
-4.518502	etx
-4.518667	eua
-4.518831	euc
-4.518996	eui
-4.519161	eul
-4.519325	eum
-4.519490	eun
-4.519654	eur
-4.519819	eus
-4.519983	euv
-4.520147	euw
-4.520311	eva
-4.520475	evd
-4.520639	eve
-4.520803	evf
-4.520967	evi
-4.521131	evm
-4.521295	evn
-4.521459	evo
-4.521622	evp
-4.521786	evr
-4.521949	evs
-4.522113	evy
-4.522276	ewa
-4.522440	ewc
-4.522603	ewe
-4.522766	ewg
-4.522929	ewr
-4.523093	ews
-4.523256	eww
-4.523419	exa
-4.523581	exc
-4.523744	exe
-4.523907	exh
-4.524070	exi
-4.524233	exo
-4.524395	exp
-4.524558	exs
-4.524720	ext
-4.524883	eya
-4.525045	eye
-4.525207	eyn
-4.525370	eyo
-4.525532	eyy
-4.525694	eze
-4.525856	f'd
-4.526018	f'n
-4.526180	f's
-4.526342	faa
-4.526504	fab
-4.526666	fac
-4.526827	fad
-4.526989	fae
-4.527151	faf
-4.527312	fag
-4.527474	fah
-4.527635	fai
-4.527796	fak
-4.527958	fal
-4.528119	fam
-4.528280	fan
-4.528441	fao
-4.528602	fap
-4.528763	faq
-4.528924	far
-4.529085	fas
-4.529246	fat
-4.529407	fau
-4.529567	fav
-4.529728	faw
-4.529889	fax
-4.530049	fay
-4.530210	faz
-4.530370	fba
-4.530530	fbc
-4.530691	fbg
-4.530851	fbi
-4.531011	fbl
-4.531171	fbm
-4.531331	fbn
-4.531491	fbo
-4.531651	fbr
-4.531811	fbs
-4.531971	fbt
-4.532131	fca
-4.532290	fcb
-4.532450	fcc
-4.532609	fcd
-4.532769	fce
-4.532928	fcf
-4.533088	fci
-4.533247	fck
-4.533406	fcl
-4.533566	fcm
-4.533725	fco
-4.533884	fcp
-4.534043	fcr
-4.534202	fcs
-4.534361	fct
-4.534520	fcu
-4.534679	fcv
-4.534837	fcw
-4.534996	fda
-4.535155	fdc
-4.535313	fdd
-4.535472	fdg
-4.535630	fdi
-4.535789	fdj
-4.535947	fdl
-4.536105	fdm
-4.536264	fdn
-4.536422	fdp
-4.536580	fdr
-4.536738	fds
-4.536896	fea
-4.537054	feb
-4.537212	fec
-4.537370	fed
-4.537528	fee
-4.537685	fef
-4.537843	feg
-4.538001	feh
-4.538158	fei
-4.538316	fel
-4.538473	fem
-4.538630	fen
-4.538788	feo
-4.538945	fep
-4.539102	fer
-4.539259	fes
-4.539416	fet
-4.539574	feu
-4.539731	fev
-4.539887	few
-4.540044	fey
-4.540201	fez
-4.540358	ffa
-4.540515	ffb
-4.540671	ffc
-4.540828	fff
-4.540984	ffg
-4.541141	ffh
-4.541297	ffi
-4.541454	ffl
-4.541610	ffm
-4.541766	ffo
-4.541922	ffp
-4.542078	ffr
-4.542235	ffs
-4.542391	fft
-4.542547	ffv
-4.542702	ffx
-4.542858	fga
-4.543014	fgc
-4.543170	fgd
-4.543326	fgf
-4.543481	fgm
-4.543637	fgo
-4.543792	fgr
-4.543948	fgs
-4.544103	fgt
-4.544259	fha
-4.544414	fhd
-4.544569	fhe
-4.544724	fhl
-4.544879	fhm
-4.545034	fhp
-4.545189	fhs
-4.545344	fia
-4.545499	fib
-4.545654	fic
-4.545809	fid
-4.545964	fie
-4.546118	fif
-4.546273	fig
-4.546428	fih
-4.546582	fii
-4.546737	fil
-4.546891	fim
-4.547045	fin
-4.547200	fio
-4.547354	fip
-4.547508	fir
-4.547662	fis
-4.547816	fit
-4.547970	fiu
-4.548124	fiv
-4.548278	fix
-4.548432	fiz
-4.548586	fka
-4.548740	fkn
-4.548894	fla
-4.549047	flc
-4.549201	fld
-4.549354	fle
-4.549508	flg
-4.549661	fli
-4.549815	fll
-4.549968	fln
-4.550121	flo
-4.550274	flp
-4.550428	flr
-4.550581	fls
-4.550734	flt
-4.550887	flu
-4.551040	flv
-4.551193	flw
-4.551345	fly
-4.551498	fma
-4.551651	fmb
-4.551804	fmc
-4.551956	fmd
-4.552109	fmf
-4.552261	fmg
-4.552414	fmi
-4.552566	fmj
-4.552719	fml
-4.552871	fmm
-4.553023	fmn
-4.553175	fmo
-4.553327	fmp
-4.553480	fmr
-4.553632	fms
-4.553784	fmt
-4.553935	fmv
-4.554087	fna
-4.554239	fnb
-4.554391	fnc
-4.554543	fnd
-4.554694	fnl
-4.554846	fnm
-4.554998	fnp
-4.555149	fns
-4.555300	foa
-4.555452	fob
-4.555603	foc
-4.555755	fod
-4.555906	foe
-4.556057	fof
-4.556208	fog
-4.556359	foh
-4.556510	foi
-4.556661	fok
-4.556812	fol
-4.556963	fom
-4.557114	fon
-4.557265	foo
-4.557415	fop
-4.557566	for
-4.557717	fos
-4.557867	fot
-4.558018	fou
-4.558168	fov
-4.558319	fow
-4.558469	fox
-4.558619	foy
-4.558769	foz
-4.558920	fpa
-4.559070	fpc
-4.559220	fpd
-4.559370	fpg
-4.559520	fpi
-4.559670	fpl
-4.559820	fpm
-4.559970	fpo
-4.560119	fpp
-4.560269	fpr
-4.560419	fps
-4.560568	fpt
-4.560718	fpu
-4.560867	fpv
-4.561017	fra
-4.561166	frb
-4.561316	frc
-4.561465	frd
-4.561614	fre
-4.561764	frf
-4.561913	frg
-4.562062	fri
-4.562211	frl
-4.562360	frm
-4.562509	frn
-4.562658	fro
-4.562807	frp
-4.562955	frr
-4.563104	frs
-4.563253	frt
-4.563402	fru
-4.563550	fry
-4.563699	fsa
-4.563847	fsb
-4.563996	fsc
-4.564144	fsd
-4.564292	fse
-4.564441	fsf
-4.564589	fsg
-4.564737	fsh
-4.564885	fsi
-4.565033	fsk
-4.565181	fsl
-4.565329	fsm
-4.565477	fsn
-4.565625	fso
-4.565773	fsp
-4.565921	fsr
-4.566069	fss
-4.566216	fst
-4.566364	fsu
-4.566512	fsw
-4.566659	fsx
-4.566807	fta
-4.566954	ftb
-4.567101	ftc
-4.567249	ftd
-4.567396	fte
-4.567543	ftf
-4.567691	ftg
-4.567838	fti
-4.567985	ftk
-4.568132	ftl
-4.568279	ftm
-4.568426	ftn
-4.568573	fto
-4.568720	ftp
-4.568866	ftr
-4.569013	fts
-4.569160	ftt
-4.569306	ftv
-4.569453	ftw
-4.569600	ftz
-4.569746	fub
-4.569892	fuc
-4.570039	fud
-4.570185	fue
-4.570332	fug
-4.570478	fuh
-4.570624	fui
-4.570770	fuk
-4.570916	ful
-4.571062	fum
-4.571208	fun
-4.571354	fuq
-4.571500	fur
-4.571646	fus
-4.571792	fut
-4.571938	fuu
-4.572083	fux
-4.572229	fwa
-4.572375	fwb
-4.572520	fwc
-4.572666	fwd
-4.572811	fwp
-4.572957	fws
-4.573102	fwy
-4.573247	fxx
-4.573393	fye
-4.573538	fyf
-4.573683	fyi
-4.573828	fyn
-4.573973	fyr
-4.574118	g's
-4.574263	gaa
-4.574408	gab
-4.574553	gac
-4.574698	gad
-4.574843	gae
-4.574987	gaf
-4.575132	gag
-4.575277	gah
-4.575421	gai
-4.575566	gaj
-4.575710	gak
-4.575855	gal
-4.575999	gam
-4.576144	gan
-4.576288	gao
-4.576432	gap
-4.576576	gar
-4.576720	gas
-4.576865	gat
-4.577009	gau
-4.577153	gav
-4.577297	gaw
-4.577441	gay
-4.577584	gaz
-4.577728	gba
-4.577872	gbc
-4.578016	gbe
-4.578159	gbf
-4.578303	gbh
-4.578447	gbi
-4.578590	gbl
-4.578734	gbm
-4.578877	gbp
-4.579021	gbr
-4.579164	gbs
-4.579307	gbt
-4.579451	gbu
-4.579594	gbv
-4.579737	gbx
-4.579880	gca
-4.580023	gcb
-4.580166	gcc
-4.580309	gcd
-4.580452	gce
-4.580595	gcf
-4.580738	gci
-4.580881	gcl
-4.581023	gcm
-4.581166	gcn
-4.581309	gcp
-4.581451	gcr
-4.581594	gcs
-4.581736	gct
-4.581879	gcu
-4.582021	gda
-4.582164	gdb
-4.582306	gdc
-4.582448	gdd
-4.582590	gdf
-4.582733	gdi
-4.582875	gdl
-4.583017	gdm
-4.583159	gdn
-4.583301	gdp
-4.583443	gdr
-4.583585	gds
-4.583727	gdt
-4.583868	gea
-4.584010	geb
-4.584152	gec
-4.584293	ged
-4.584435	gee
-4.584577	gef
-4.584718	geh
-4.584860	gei
-4.585001	gek
-4.585143	gel
-4.585284	gem
-4.585425	gen
-4.585566	geo
-4.585708	gep
-4.585849	ger
-4.585990	ges
-4.586131	get
-4.586272	gev
-4.586413	gex
-4.586554	gey
-4.586695	gez
-4.586836	gfa
-4.586977	gfc
-4.587117	gfe
-4.587258	gff
-4.587399	gfi
-4.587539	gfk
-4.587680	gfl
-4.587820	gfm
-4.587961	gfp
-4.588101	gfr
-4.588242	gfs
-4.588382	gfw
-4.588522	gfx
-4.588663	gfy
-4.588803	gga
-4.588943	ggc
-4.589083	ggg
-4.589223	ggo
-4.589363	ggp
-4.589503	ggs
-4.589643	ggt
-4.589783	gha
-4.589923	ghb
-4.590063	ghc
-4.590202	ghd
-4.590342	ghe
-4.590482	ghg
-4.590621	ghi
-4.590761	ghq
-4.590900	ghr
-4.591040	ghs
-4.591179	ght
-4.591319	ghz
-4.591458	gia
-4.591597	gib
-4.591737	gic
-4.591876	gid
-4.592015	gie
-4.592154	gif
-4.592293	gig
-4.592432	gii
-4.592571	gil
-4.592710	gim
-4.592849	gin
-4.592988	gio
-4.593127	gip
-4.593266	gir
-4.593404	gis
-4.593543	git
-4.593682	giv
-4.593820	giz
-4.593959	gkn
-4.594097	gks
-4.594236	gla
-4.594374	glb
-4.594513	glc
-4.594651	gld
-4.594789	gle
-4.594928	glf
-4.595066	glg
-4.595204	gli
-4.595342	glm
-4.595480	glo
-4.595618	glp
-4.595756	gls
-4.595894	glt
-4.596032	glu
-4.596170	gly
-4.596308	gma
-4.596445	gmb
-4.596583	gmc
-4.596721	gmd
-4.596858	gme
-4.596996	gmg
-4.597133	gmi
-4.597271	gml
-4.597408	gmm
-4.597546	gmo
-4.597683	gmp
-4.597821	gmr
-4.597958	gms
-4.598095	gmt
-4.598232	gmu
-4.598369	gmv
-4.598507	gna
-4.598644	gnb
-4.598781	gnc
-4.598918	gnd
-4.599055	gni
-4.599191	gnn
-4.599328	gnp
-4.599465	gnr
-4.599602	gns
-4.599739	gnt
-4.599875	gnu
-4.600012	goa
-4.600148	gob
-4.600285	goc
-4.600422	god
-4.600558	goe
-4.600694	gof
-4.600831	gog
-4.600967	goh
-4.601103	goi
-4.601240	gok
-4.601376	gol
-4.601512	gom
-4.601648	gon
-4.601784	goo
-4.601920	gop
-4.602056	gor
-4.602192	gos
-4.602328	got
-4.602464	gou
-4.602600	gov
-4.602736	gow
-4.602871	gox
-4.603007	goy
-4.603143	gpa
-4.603278	gpb
-4.603414	gpc
-4.603549	gpd
-4.603685	gpe
-4.603820	gpg
-4.603956	gph
-4.604091	gpi
-4.604226	gpl
-4.604362	gpm
-4.604497	gpo
-4.604632	gpp
-4.604767	gpr
-4.604902	gps
-4.605037	gpt
-4.605172	gpu
-4.605307	gpx
-4.605442	gra
-4.605577	grb
-4.605712	grc
-4.605847	grd
-4.605982	gre
-4.606116	grf
-4.606251	grg
-4.606386	gri
-4.606520	grk
-4.606655	grl
-4.606789	grm
-4.606924	grn
-4.607058	gro
-4.607193	grp
-4.607327	grr
-4.607461	grs
-4.607596	grt
-4.607730	gru
-4.607864	gry
-4.607998	gsa
-4.608132	gsb
-4.608266	gsc
-4.608400	gsd
-4.608534	gse
-4.608668	gsf
-4.608802	gsg
-4.608936	gsh
-4.609070	gsi
-4.609204	gsk
-4.609337	gsl
-4.609471	gsm
-4.609605	gsn
-4.609738	gso
-4.609872	gsp
-4.610005	gsr
-4.610139	gss
-4.610272	gst
-4.610406	gsu
-4.610539	gsw
-4.610672	gsx
-4.610806	gta
-4.610939	gtb
-4.611072	gtc
-4.611205	gtd
-4.611338	gte
-4.611471	gtf
-4.611605	gtg
-4.611738	gti
-4.611870	gtk
-4.612003	gtl
-4.612136	gtm
-4.612269	gtn
-4.612402	gto
-4.612535	gtp
-4.612667	gtr
-4.612800	gts
-4.612933	gtt
-4.613065	gtv
-4.613198	gtx
-4.613330	gua
-4.613463	gud
-4.613595	gue
-4.613728	guh
-4.613860	gui
-4.613992	guk
-4.614124	gul
-4.614257	gum
-4.614389	gun
-4.614521	guo
-4.614653	gup
-4.614785	gur
-4.614917	gus
-4.615049	gut
-4.615181	guv
-4.615313	guy
-4.615445	guz
-4.615577	gva
-4.615709	gvt
-4.615840	gwa
-4.615972	gwb
-4.616104	gwc
-4.616235	gwe
-4.616367	gwg
-4.616498	gwh
-4.616630	gwi
-4.616761	gwp
-4.616893	gwr
-4.617024	gws
-4.617156	gwt
-4.617287	gwu
-4.617418	gxp
-4.617549	gya
-4.617681	gye
-4.617812	gyi
-4.617943	gym
-4.618074	gyn
-4.618205	gyo
-4.618336	gyp
-4.618467	gyr
-4.618598	gyu
-4.618729	gza
-4.618859	h's
-4.618990	haa
-4.619121	hab
-4.619252	hac
-4.619382	had
-4.619513	hae
-4.619644	haf
-4.619774	hag
-4.619905	hah
-4.620035	hai
-4.620166	haj
-4.620296	hak
-4.620426	hal
-4.620557	ham
-4.620687	han
-4.620817	hao
-4.620947	hap
-4.621078	haq
-4.621208	har
-4.621338	has
-4.621468	hat
-4.621598	hau
-4.621728	hav
-4.621858	haw
-4.621988	hax
-4.622117	hay
-4.622247	haz
-4.622377	hba
-4.622507	hbc
-4.622636	hbd
-4.622766	hbf
-4.622896	hbk
-4.623025	hbl
-4.623155	hbm
-4.623284	hbo
-4.623414	hbp
-4.623543	hbr
-4.623673	hbs
-4.623802	hbt
-4.623931	hbv
-4.624061	hca
-4.624190	hcb
-4.624319	hcc
-4.624448	hcd
-4.624577	hce
-4.624706	hcf
-4.624835	hcg
-4.624964	hci
-4.625093	hcl
-4.625222	hcm
-4.625351	hcn
-4.625480	hco
-4.625609	hcp
-4.625738	hcr
-4.625866	hcs
-4.625995	hct
-4.626124	hcv
-4.626252	hdb
-4.626381	hdc
-4.626510	hdd
-4.626638	hdi
-4.626767	hdl
-4.626895	hdp
-4.627023	hdr
-4.627152	hds
-4.627280	hdt
-4.627408	hdv
-4.627537	hdx
-4.627665	hea
-4.627793	heb
-4.627921	hec
-4.628049	hed
-4.628177	hee
-4.628305	hef
-4.628433	heh
-4.628561	hei
-4.628689	hej
-4.628817	hek
-4.628945	hel
-4.629073	hem
-4.629200	hen
-4.629328	heo
-4.629456	hep
-4.629583	her
-4.629711	hes
-4.629838	het
-4.629966	heu
-4.630093	hev
-4.630221	hew
-4.630348	hex
-4.630476	hey
-4.630603	hfa
-4.630730	hfc
-4.630858	hfe
-4.630985	hfr
-4.631112	hfs
-4.631239	hft
-4.631366	hgc
-4.631493	hgh
-4.631620	hgs
-4.631747	hgv
-4.631874	hha
-4.632001	hhc
-4.632128	hhd
-4.632255	hhe
-4.632382	hhh
-4.632509	hhi
-4.632635	hhm
-4.632762	hhr
-4.632889	hhs
-4.633015	hhv
-4.633142	hia
-4.633269	hib
-4.633395	hic
-4.633522	hid
-4.633648	hie
-4.633774	hif
-4.633901	hig
-4.634027	hih
-4.634154	hii
-4.634280	hij
-4.634406	hil
-4.634532	him
-4.634658	hin
-4.634784	hio
-4.634911	hip
-4.635037	hir
-4.635163	his
-4.635289	hit
-4.635415	hiv
-4.635540	hiw
-4.635666	hix
-4.635792	hkd
-4.635918	hkg
-4.636044	hks
-4.636169	hkt
-4.636295	hku
-4.636421	hla
-4.636546	hlb
-4.636672	hlc
-4.636797	hlf
-4.636923	hlg
-4.637048	hlm
-4.637174	hln
-4.637299	hlp
-4.637425	hls
-4.637550	hlt
-4.637675	hlw
-4.637800	hma
-4.637926	hmb
-4.638051	hmc
-4.638176	hmd
-4.638301	hme
-4.638426	hmf
-4.638551	hmg
-4.638676	hmh
-4.638801	hmi
-4.638926	hml
-4.639051	hmm
-4.639176	hmo
-4.639301	hmp
-4.639425	hmr
-4.639550	hms
-4.639675	hmt
-4.639799	hmu
-4.639924	hmv
-4.640049	hmx
-4.640173	hna
-4.640298	hnc
-4.640422	hnd
-4.640547	hns
-4.640671	hoa
-4.640796	hob
-4.640920	hoc
-4.641044	hod
-4.641169	hoe
-4.641293	hof
-4.641417	hog
-4.641541	hoh
-4.641665	hoi
-4.641789	hok
-4.641913	hol
-4.642037	hom
-4.642161	hon
-4.642285	hoo
-4.642409	hop
-4.642533	hor
-4.642657	hos
-4.642781	hot
-4.642905	hou
-4.643028	hov
-4.643152	how
-4.643276	hox
-4.643399	hoy
-4.643523	hpa
-4.643647	hpb
-4.643770	hpc
-4.643894	hpd
-4.644017	hpe
-4.644141	hpf
-4.644264	hpg
-4.644387	hpi
-4.644511	hpl
-4.644634	hpm
-4.644757	hpp
-4.644880	hpr
-4.645004	hps
-4.645127	hpt
-4.645250	hpv
-4.645373	hqs
-4.645496	hra
-4.645619	hrc
-4.645742	hrd
-4.645865	hre
-4.645988	hrg
-4.646111	hrh
-4.646234	hri
-4.646356	hrm
-4.646479	hro
-4.646602	hrp
-4.646725	hrs
-4.646847	hrt
-4.646970	hrv
-4.647092	hrw
-4.647215	hsa
-4.647338	hsb
-4.647460	hsc
-4.647583	hsd
-4.647705	hse
-4.647827	hsf
-4.647950	hsg
-4.648072	hsh
-4.648194	hsi
-4.648317	hsk
-4.648439	hsl
-4.648561	hsm
-4.648683	hsn
-4.648805	hso
-4.648927	hsp
-4.649049	hsr
-4.649171	hss
-4.649293	hst
-4.649415	hsu
-4.649537	hsv
-4.649659	hta
-4.649781	htb
-4.649903	htc
-4.650024	hte
-4.650146	htf
-4.650268	hth
-4.650390	htm
-4.650511	htp
-4.650633	htr
-4.650754	hts
-4.650876	htt
-4.650997	htv
-4.651119	hua
-4.651240	hub
-4.651362	hud
-4.651483	hue
-4.651604	huf
-4.651726	hug
-4.651847	huh
-4.651968	hui
-4.652089	huk
-4.652211	hul
-4.652332	hum
-4.652453	hun
-4.652574	huo
-4.652695	hup
-4.652816	huq
-4.652937	hur
-4.653058	hus
-4.653179	hut
-4.653299	huu
-4.653420	huw
-4.653541	hux
-4.653662	huy
-4.653783	hva
-4.653903	hve
-4.654024	hvt
-4.654144	hwa
-4.654265	hwi
-4.654386	hws
-4.654506	hwy
-4.654627	hxh
-4.654747	hya
-4.654867	hyd
-4.654988	hye
-4.655108	hym
-4.655229	hyo
-4.655349	hyp
-4.655469	hys
-4.655589	i'd
-4.655709	i'l
-4.655830	i'm
-4.655950	i'n
-4.656070	i's
-4.656190	i'v
-4.656310	iaa
-4.656430	iab
-4.656550	iac
-4.656670	iad
-4.656790	iae
-4.656910	iaf
-4.657029	iag
-4.657149	iah
-4.657269	iai
-4.657389	ial
-4.657508	iam
-4.657628	ian
-4.657748	iao
-4.657867	iap
-4.657987	iar
-4.658106	ias
-4.658226	iat
-4.658345	iau
-4.658465	iaw
-4.658584	iba
-4.658703	ibb
-4.658823	ibc
-4.658942	ibd
-4.659061	ibe
-4.659181	ibf
-4.659300	ibi
-4.659419	ibm
-4.659538	ibn
-4.659657	ibo
-4.659776	ibp
-4.659895	ibr
-4.660014	ibs
-4.660133	ibt
-4.660252	ibu
-4.660371	ica
-4.660490	icb
-4.660609	icc
-4.660728	icd
-4.660846	ice
-4.660965	icf
-4.661084	icg
-4.661202	ich
-4.661321	ici
-4.661440	icj
-4.661558	ick
-4.661677	icl
-4.661795	icm
-4.661914	icn
-4.662032	ico
-4.662151	icp
-4.662269	icq
-4.662387	icr
-4.662506	ics
-4.662624	ict
-4.662742	icu
-4.662860	icv
-4.662979	icw
-4.663097	icy
-4.663215	ida
-4.663333	idb
-4.663451	idc
-4.663569	idd
-4.663687	ide
-4.663805	idf
-4.663923	idg
-4.664041	idi
-4.664159	idk
-4.664277	idl
-4.664394	idm
-4.664512	idn
-4.664630	ido
-4.664748	idp
-4.664865	idr
-4.664983	ids
-4.665101	idt
-4.665218	idu
-4.665336	idw
-4.665453	idx
-4.665571	iea
-4.665688	iec
-4.665806	ied
-4.665923	iee
-4.666040	iek
-4.666158	iem
-4.666275	ien
-4.666392	iep
-4.666510	ier
-4.666627	ies
-4.666744	iet
-4.666861	ifa
-4.666978	ifb
-4.667095	ifc
-4.667212	ife
-4.667329	iff
-4.667446	ifg
-4.667563	ifi
-4.667680	ifk
-4.667797	ifl
-4.667914	ifm
-4.668031	ifn
-4.668148	ifo
-4.668264	ifp
-4.668381	ifr
-4.668498	ifs
-4.668614	ift
-4.668731	ify
-4.668848	iga
-4.668964	igc
-4.669081	igd
-4.669197	ige
-4.669314	igf
-4.669430	igg
-4.669547	igh
-4.669663	igi
-4.669779	igm
-4.669896	ign
-4.670012	igo
-4.670128	igp
-4.670244	igr
-4.670361	igs
-4.670477	igt
-4.670593	igy
-4.670709	iha
-4.670825	ihc
-4.670941	ihe
-4.671057	ihg
-4.671173	ihh
-4.671289	ihi
-4.671405	ihl
-4.671521	ihm
-4.671637	ihn
-4.671753	iho
-4.671868	ihr
-4.671984	ihs
-4.672100	iht
-4.672216	iia
-4.672331	iib
-4.672447	iic
-4.672563	iid
-4.672678	iie
-4.672794	iif
-4.672909	iii
-4.673025	iim
-4.673140	iin
-4.673256	iio
-4.673371	iip
-4.673486	iir
-4.673602	iis
-4.673717	iit
-4.673832	ijn
-4.673947	ijo
-4.674063	ijs
-4.674178	ika
-4.674293	ike
-4.674408	iki
-4.674523	iko
-4.674638	ikr
-4.674753	iku
-4.674868	ila
-4.674983	ilb
-4.675098	ilc
-4.675213	ild
-4.675328	ile
-4.675443	ilf
-4.675558	ili
-4.675672	ilk
-4.675787	ill
-4.675902	ilm
-4.676017	ilo
-4.676131	ilp
-4.676246	ilr
-4.676361	ils
-4.676475	ilt
-4.676590	ilu
-4.676704	ily
-4.676819	ima
-4.676933	imb
-4.677048	imc
-4.677162	imd
-4.677276	ime
-4.677391	imf
-4.677505	img
-4.677619	imi
-4.677733	iml
-4.677848	imm
-4.677962	imn
-4.678076	imo
-4.678190	imp
-4.678304	imr
-4.678418	ims
-4.678532	imt
-4.678646	imu
-4.678760	ina
-4.678874	inb
-4.678988	inc
-4.679102	ind
-4.679216	ine
-4.679330	inf
-4.679444	ing
-4.679557	inh
-4.679671	ini
-4.679785	inj
-4.679898	ink
-4.680012	inl
-4.680126	inm
-4.680239	inn
-4.680353	ino
-4.680466	inp
-4.680580	inq
-4.680693	inr
-4.680807	ins
-4.680920	int
-4.681033	inu
-4.681147	inv
-4.681260	ioa
-4.681373	iob
-4.681487	ioc
-4.681600	iod
-4.681713	ioe
-4.681826	iof
-4.681939	ioi
-4.682053	iol
-4.682166	iom
-4.682279	ion
-4.682392	iop
-4.682505	ior
-4.682618	ios
-4.682731	iot
-4.682844	iou
-4.682956	iow
-4.683069	ipa
-4.683182	ipb
-4.683295	ipc
-4.683408	ipd
-4.683520	ipe
-4.683633	ipf
-4.683746	ipg
-4.683858	ipi
-4.683971	ipl
-4.684084	ipm
-4.684196	ipn
-4.684309	ipo
-4.684421	ipp
-4.684534	ipr
-4.684646	ips
-4.684758	ipt
-4.684871	ipu
-4.684983	ipv
-4.685096	ipx
-4.685208	iqs
-4.685320	ira
-4.685432	irb
-4.685545	irc
-4.685657	ird
-4.685769	ire
-4.685881	irf
-4.685993	iri
-4.686105	irk
-4.686217	irl
-4.686329	irm
-4.686441	irn
-4.686553	iro
-4.686665	irp
-4.686777	irq
-4.686889	irr
-4.687001	irs
-4.687112	irt
-4.687224	iru
-4.687336	irv
-4.687448	isa
-4.687559	isb
-4.687671	isc
-4.687783	isd
-4.687894	ise
-4.688006	isf
-4.688117	isg
-4.688229	ish
-4.688340	isi
-4.688452	isk
-4.688563	isl
-4.688675	ism
-4.688786	isn
-4.688897	iso
-4.689009	isp
-4.689120	isr
-4.689231	iss
-4.689342	ist
-4.689454	isu
-4.689565	ita
-4.689676	itb
-4.689787	itc
-4.689898	itd
-4.690009	ite
-4.690120	itf
-4.690231	itg
-4.690342	ith
-4.690453	iti
-4.690564	itk
-4.690675	itl
-4.690786	itm
-4.690897	itn
-4.691007	ito
-4.691118	itp
-4.691229	itr
-4.691340	its
-4.691450	itt
-4.691561	itu
-4.691672	itv
-4.691782	itw
-4.691893	itx
-4.692003	ity
-4.692114	itz
-4.692224	iud
-4.692335	iui
-4.692445	iup
-4.692556	ius
-4.692666	iut
-4.692776	iva
-4.692887	ivb
-4.692997	ivc
-4.693107	ivd
-4.693218	ive
-4.693328	ivf
-4.693438	ivi
-4.693548	ivn
-4.693658	ivo
-4.693768	ivp
-4.693878	ivr
-4.693988	ivs
-4.694098	ivy
-4.694208	iwa
-4.694318	iwb
-4.694428	iwc
-4.694538	iwd
-4.694648	iwf
-4.694758	iwi
-4.694868	iwm
-4.694978	iwo
-4.695087	iws
-4.695197	iww
-4.695307	iya
-4.695417	iyo
-4.695526	iza
-4.695636	ize
-4.695745	izo
-4.695855	izu
-4.695965	izz
-4.696074	j's
-4.696184	jaa
-4.696293	jab
-4.696402	jac
-4.696512	jad
-4.696621	jae
-4.696731	jag
-4.696840	jah
-4.696949	jai
-4.697058	jak
-4.697168	jal
-4.697277	jam
-4.697386	jan
-4.697495	jao
-4.697604	jap
-4.697714	jaq
-4.697823	jar
-4.697932	jas
-4.698041	jat
-4.698150	jav
-4.698259	jaw
-4.698368	jax
-4.698476	jay
-4.698585	jaz
-4.698694	jbc
-4.698803	jbj
-4.698912	jbl
-4.699021	jbr
-4.699129	jbs
-4.699238	jca
-4.699347	jcb
-4.699455	jcc
-4.699564	jci
-4.699673	jcl
-4.699781	jcm
-4.699890	jcp
-4.699998	jcr
-4.700107	jcs
-4.700215	jct
-4.700324	jcw
-4.700432	jda
-4.700541	jdc
-4.700649	jdf
-4.700757	jdk
-4.700866	jdl
-4.700974	jdm
-4.701082	jds
-4.701191	jea
-4.701299	jeb
-4.701407	jec
-4.701515	jed
-4.701623	jee
-4.701731	jef
-4.701839	jeg
-4.701947	jeh
-4.702055	jei
-4.702163	jek
-4.702271	jel
-4.702379	jem
-4.702487	jen
-4.702595	jep
-4.702703	jer
-4.702811	jes
-4.702919	jet
-4.703026	jeu
-4.703134	jev
-4.703242	jew
-4.703350	jex
-4.703457	jey
-4.703565	jez
-4.703673	jfc
-4.703780	jfk
-4.703888	jfl
-4.703995	jfs
-4.704103	jgb
-4.704210	jgr
-4.704318	jha
-4.704425	jhb
-4.704532	jho
-4.704640	jhs
-4.704747	jhu
-4.704855	jia
-4.704962	jib
-4.705069	jic
-4.705176	jid
-4.705284	jie
-4.705391	jif
-4.705498	jig
-4.705605	jih
-4.705712	jij
-4.705819	jik
-4.705926	jil
-4.706033	jim
-4.706140	jin
-4.706247	jio
-4.706354	jip
-4.706461	jis
-4.706568	jit
-4.706675	jiu
-4.706782	jjb
-4.706889	jjj
-4.706996	jjs
-4.707102	jkr
-4.707209	jks
-4.707316	jla
-4.707422	jlc
-4.707529	jll
-4.707636	jlo
-4.707742	jlp
-4.707849	jlr
-4.707956	jls
-4.708062	jlt
-4.708169	jma
-4.708275	jmb
-4.708382	jmc
-4.708488	jme
-4.708594	jml
-4.708701	jmo
-4.708807	jmp
-4.708913	jms
-4.709020	jmt
-4.709126	jmu
-4.709232	jnj
-4.709338	jnk
-4.709445	jnr
-4.709551	jnu
-4.709657	joa
-4.709763	job
-4.709869	joc
-4.709975	jod
-4.710081	joe
-4.710187	jog
-4.710293	joh
-4.710399	joi
-4.710505	jok
-4.710611	jol
-4.710717	jom
-4.710823	jon
-4.710929	joo
-4.711035	jor
-4.711140	jos
-4.711246	jot
-4.711352	jou
-4.711457	jow
-4.711563	joy
-4.711669	jpa
-4.711774	jpg
-4.711880	jpl
-4.711986	jpm
-4.712091	jpn
-4.712197	jpp
-4.712302	jps
-4.712408	jpy
-4.712513	jra
-4.712619	jrc
-4.712724	jre
-4.712829	jrf
-4.712935	jrg
-4.713040	jrm
-4.713145	jrr
-4.713251	jrs
-4.713356	jsa
-4.713461	jsc
-4.713566	jse
-4.713671	jsf
-4.713777	jsp
-4.713882	jsr
-4.713987	jss
-4.714092	jst
-4.714197	jta
-4.714302	jtf
-4.714407	jtg
-4.714512	jth
-4.714617	jts
-4.714722	jub
-4.714827	jud
-4.714931	jue
-4.715036	jug
-4.715141	jui
-4.715246	jul
-4.715351	jum
-4.715455	jun
-4.715560	jup
-4.715665	jur
-4.715769	jus
-4.715874	jut
-4.715979	jux
-4.716083	juz
-4.716188	jvc
-4.716292	jvm
-4.716397	jvp
-4.716501	jvr
-4.716606	jvs
-4.716710	jwh
-4.716815	jws
-4.716919	jwt
-4.717023	jyn
-4.717128	jyp
-4.717232	k's
-4.717336	kaa
-4.717441	kab
-4.717545	kac
-4.717649	kad
-4.717753	kae
-4.717857	kaf
-4.717962	kah
-4.718066	kai
-4.718170	kaj
-4.718274	kak
-4.718378	kal
-4.718482	kam
-4.718586	kan
-4.718690	kao
-4.718794	kap
-4.718898	kar
-4.719002	kas
-4.719105	kat
-4.719209	kau
-4.719313	kav
-4.719417	kaw
-4.719521	kay
-4.719624	kaz
-4.719728	kbb
-4.719832	kbc
-4.719935	kbd
-4.720039	kbm
-4.720143	kbo
-4.720246	kbp
-4.720350	kbr
-4.720453	kbs
-4.720557	kca
-4.720660	kcb
-4.720764	kcc
-4.720867	kci
-4.720971	kck
-4.721074	kcl
-4.721177	kcp
-4.721281	kcr
-4.721384	kcs
-4.721487	kda
-4.721591	kdb
-4.721694	kde
-4.721797	kdf
-4.721900	kdp
-4.722003	kdr
-4.722107	kds
-4.722210	kea
-4.722313	keb
-4.722416	ked
-4.722519	kee
-4.722622	kef
-4.722725	keg
-4.722828	keh
-4.722931	kei
-4.723034	kek
-4.723137	kel
-4.723240	kem
-4.723342	ken
-4.723445	keo
-4.723548	kep
-4.723651	ker
-4.723754	kes
-4.723856	ket
-4.723959	kev
-4.724062	kew
-4.724164	kex
-4.724267	key
-4.724370	kfc
-4.724472	kfi
-4.724575	kft
-4.724677	kgb
-4.724780	kgf
-4.724882	kgi
-4.724985	kgo
-4.725087	kgs
-4.725190	kha
-4.725292	khe
-4.725394	khi
-4.725497	khj
-4.725599	khl
-4.725701	kho
-4.725804	khs
-4.725906	khu
-4.726008	khz
-4.726110	kia
-4.726212	kib
-4.726315	kic
-4.726417	kid
-4.726519	kie
-4.726621	kif
-4.726723	kii
-4.726825	kik
-4.726927	kil
-4.727029	kim
-4.727131	kin
-4.727233	kio
-4.727335	kip
-4.727437	kir
-4.727539	kis
-4.727640	kit
-4.727742	kiu
-4.727844	kix
-4.727946	kjv
-4.728047	kkk
-4.728149	kkr
-4.728251	kla
-4.728353	klf
-4.728454	klk
-4.728556	klm
-4.728657	kln
-4.728759	kma
-4.728861	kmc
-4.728962	kmd
-4.729064	kmf
-4.729165	kmg
-4.729267	kmh
-4.729368	kml
-4.729469	kms
-4.729571	kmt
-4.729672	knc
-4.729774	knk
-4.729875	kno
-4.729976	knt
-4.730077	knw
-4.730179	knx
-4.730280	koa
-4.730381	kob
-4.730482	koc
-4.730583	kod
-4.730685	koe
-4.730786	kof
-4.730887	kog
-4.730988	koh
-4.731089	koi
-4.731190	kok
-4.731291	kol
-4.731392	kom
-4.731493	kon
-4.731594	koo
-4.731694	kop
-4.731795	kor
-4.731896	kos
-4.731997	kot
-4.732098	kou
-4.732199	kow
-4.732299	koy
-4.732400	koz
-4.732501	kpa
-4.732601	kpc
-4.732702	kpd
-4.732803	kph
-4.732903	kpi
-4.733004	kpk
-4.733105	kpl
-4.733205	kpm
-4.733306	kpn
-4.733406	kps
-4.733507	kpu
-4.733607	kra
-4.733707	kre
-4.733808	krg
-4.733908	kri
-4.734009	krk
-4.734109	kro
-4.734209	krs
-4.734310	kru
-4.734410	krw
-4.734510	ksa
-4.734610	ksc
-4.734710	kse
-4.734811	ksg
-4.734911	ksh
-4.735011	ksi
-4.735111	ksl
-4.735211	ksm
-4.735311	ksp
-4.735411	ksr
-4.735511	kss
-4.735611	kst
-4.735711	ksu
-4.735811	kta
-4.735911	ktb
-4.736011	kth
-4.736111	ktm
-4.736211	ktn
-4.736310	kto
-4.736410	ktp
-4.736510	kts
-4.736610	ktv
-4.736710	kua
-4.736809	kub
-4.736909	kuh
-4.737009	kui
-4.737108	kuk
-4.737208	kul
-4.737307	kum
-4.737407	kun
-4.737507	kuo
-4.737606	kup
-4.737706	kur
-4.737805	kus
-4.737905	kut
-4.738004	kuz
-4.738103	kva
-4.738203	kvd
-4.738302	kvm
-4.738401	kvp
-4.738501	kwa
-4.738600	kwe
-4.738699	kwh
-4.738799	kwp
-4.738898	kws
-4.738997	kya
-4.739096	kyc
-4.739195	kyd
-4.739295	kye
-4.739394	kyi
-4.739493	kyl
-4.739592	kym
-4.739691	kyo
-4.739790	kys
-4.739889	kyu
-4.739988	kzn
-4.740087	l'm
-4.740186	l's
-4.740285	laa
-4.740384	lab
-4.740483	lac
-4.740581	lad
-4.740680	lae
-4.740779	laf
-4.740878	lag
-4.740977	lah
-4.741075	lai
-4.741174	lak
-4.741273	lal
-4.741371	lam
-4.741470	lan
-4.741569	lao
-4.741667	lap
-4.741766	lar
-4.741864	las
-4.741963	lat
-4.742061	lau
-4.742160	lav
-4.742258	law
-4.742357	lax
-4.742455	lay
-4.742554	laz
-4.742652	lba
-4.742750	lbc
-4.742849	lbd
-4.742947	lbf
-4.743045	lbg
-4.743144	lbi
-4.743242	lbj
-4.743340	lbl
-4.743438	lbm
-4.743536	lbo
-4.743635	lbp
-4.743733	lbr
-4.743831	lbs
-4.743929	lbt
-4.744027	lbw
-4.744125	lca
-4.744223	lcb
-4.744321	lcc
-4.744419	lcd
-4.744517	lce
-4.744615	lcf
-4.744713	lcg
-4.744811	lch
-4.744909	lci
-4.745006	lck
-4.745104	lcl
-4.745202	lcm
-4.745300	lcn
-4.745398	lcp
-4.745495	lcr
-4.745593	lcs
-4.745691	lct
-4.745788	lcu
-4.745886	lcv
-4.745984	lda
-4.746081	ldb
-4.746179	ldc
-4.746276	ldd
-4.746374	ldf
-4.746472	ldh
-4.746569	ldk
-4.746667	ldl
-4.746764	ldn
-4.746861	ldp
-4.746959	ldr
-4.747056	lds
-4.747154	ldv
-4.747251	lea
-4.747348	leb
-4.747446	lec
-4.747543	led
-4.747640	lee
-4.747737	lef
-4.747835	leg
-4.747932	leh
-4.748029	lei
-4.748126	lek
-4.748223	lel
-4.748320	lem
-4.748417	len
-4.748514	leo
-4.748611	lep
-4.748708	ler
-4.748805	les
-4.748902	let
-4.748999	leu
-4.749096	lev
-4.749193	lew
-4.749290	lex
-4.749387	ley
-4.749484	lez
-4.749581	lfa
-4.749677	lfb
-4.749774	lfc
-4.749871	lfe
-4.749968	lff
-4.750064	lfg
-4.750161	lfl
-4.750258	lfo
-4.750354	lfp
-4.750451	lfr
-4.750548	lfs
-4.750644	lft
-4.750741	lfw
-4.750837	lga
-4.750934	lgb
-4.751030	lgd
-4.751127	lge
-4.751223	lgi
-4.751320	lgm
-4.751416	lgr
-4.751513	lgs
-4.751609	lgv
-4.751705	lha
-4.751802	lhc
-4.751898	lhd
-4.751994	lhe
-4.752090	lho
-4.752187	lhp
-4.752283	lhr
-4.752379	lhs
-4.752475	lia
-4.752571	lib
-4.752668	lic
-4.752764	lid
-4.752860	lie
-4.752956	lif
-4.753052	lig
-4.753148	lih
-4.753244	lii
-4.753340	lij
-4.753436	lik
-4.753532	lil
-4.753628	lim
-4.753724	lin
-4.753820	lio
-4.753915	lip
-4.754011	liq
-4.754107	lir
-4.754203	lis
-4.754299	lit
-4.754394	liu
-4.754490	liv
-4.754586	lix
-4.754682	liz
-4.754777	lka
-4.754873	lke
-4.754968	lks
-4.755064	lla
-4.755160	llb
-4.755255	llc
-4.755351	lld
-4.755446	lle
-4.755542	lli
-4.755637	lll
-4.755733	llm
-4.755828	llo
-4.755924	llp
-4.756019	llr
-4.756114	lls
-4.756210	lly
-4.756305	lma
-4.756400	lmb
-4.756496	lmc
-4.756591	lmd
-4.756686	lme
-4.756781	lmf
-4.756877	lmg
-4.756972	lmi
-4.757067	lmk
-4.757162	lmm
-4.757257	lmn
-4.757352	lmp
-4.757447	lmr
-4.757543	lms
-4.757638	lmt
-4.757733	lmu
-4.757828	lna
-4.757923	lnc
-4.758018	lnd
-4.758112	lng
-4.758207	lnk
-4.758302	lnp
-4.758397	lnr
-4.758492	lns
-4.758587	lnt
-4.758682	loa
-4.758776	lob
-4.758871	loc
-4.758966	lod
-4.759061	loe
-4.759155	lof
-4.759250	log
-4.759345	loh
-4.759439	loi
-4.759534	lok
-4.759629	lol
-4.759723	lom
-4.759818	lon
-4.759912	loo
-4.760007	lop
-4.760101	lor
-4.760196	los
-4.760290	lot
-4.760385	lou
-4.760479	lov
-4.760574	low
-4.760668	lox
-4.760762	loy
-4.760857	loz
-4.760951	lpa
-4.761045	lpc
-4.761140	lpd
-4.761234	lpf
-4.761328	lpg
-4.761422	lpi
-4.761516	lpl
-4.761611	lpm
-4.761705	lpn
-4.761799	lpo
-4.761893	lpp
-4.761987	lpr
-4.762081	lps
-4.762175	lpt
-4.762269	lra
-4.762363	lrb
-4.762457	lrc
-4.762551	lrg
-4.762645	lro
-4.762739	lrp
-4.762833	lrr
-4.762927	lrs
-4.763021	lrt
-4.763115	lsa
-4.763209	lsb
-4.763302	lsc
-4.763396	lsd
-4.763490	lse
-4.763584	lsf
-4.763677	lsg
-4.763771	lsh
-4.763865	lsi
-4.763958	lsk
-4.764052	lsl
-4.764146	lsm
-4.764239	lsn
-4.764333	lso
-4.764426	lsp
-4.764520	lsr
-4.764614	lss
-4.764707	lst
-4.764801	lsu
-4.764894	lsv
-4.764987	lta
-4.765081	ltc
-4.765174	ltd
-4.765268	lte
-4.765361	ltf
-4.765454	ltg
-4.765548	lth
-4.765641	lti
-4.765734	ltl
-4.765828	ltm
-4.765921	lto
-4.766014	ltp
-4.766107	ltr
-4.766200	lts
-4.766294	ltt
-4.766387	ltu
-4.766480	ltv
-4.766573	lua
-4.766666	lub
-4.766759	luc
-4.766852	lud
-4.766945	lue
-4.767038	lug
-4.767131	luh
-4.767224	lui
-4.767317	luk
-4.767410	lul
-4.767503	lum
-4.767596	lun
-4.767689	luo
-4.767782	lup
-4.767874	lur
-4.767967	lus
-4.768060	lut
-4.768153	luu
-4.768246	luv
-4.768338	lux
-4.768431	luz
-4.768524	lve
-4.768616	lvg
-4.768709	lvi
-4.768802	lvl
-4.768894	lvm
-4.768987	lvn
-4.769079	lvp
-4.769172	lvs
-4.769264	lvt
-4.769357	lvy
-4.769449	lwa
-4.769542	lwb
-4.769634	lwo
-4.769727	lwr
-4.769819	lwt
-4.769912	lxi
-4.770004	lxx
-4.770096	lya
-4.770189	lye
-4.770281	lyf
-4.770373	lyk
-4.770466	lyn
-4.770558	lyr
-4.770650	lys
-4.770742	m's
-4.770834	maa
-4.770927	mab
-4.771019	mac
-4.771111	mad
-4.771203	mae
-4.771295	maf
-4.771387	mag
-4.771479	mah
-4.771571	mai
-4.771663	maj
-4.771755	mak
-4.771847	mal
-4.771939	mam
-4.772031	man
-4.772123	mao
-4.772215	map
-4.772307	mar
-4.772399	mas
-4.772491	mat
-4.772582	mau
-4.772674	mav
-4.772766	maw
-4.772858	max
-4.772950	may
-4.773041	maz
-4.773133	mba
-4.773225	mbb
-4.773316	mbc
-4.773408	mbd
-4.773500	mbe
-4.773591	mbf
-4.773683	mbh
-4.773774	mbi
-4.773866	mbk
-4.773958	mbl
-4.774049	mbm
-4.774141	mbo
-4.774232	mbp
-4.774324	mbr
-4.774415	mbs
-4.774506	mbt
-4.774598	mca
-4.774689	mcb
-4.774781	mcc
-4.774872	mcd
-4.774963	mce
-4.775054	mcf
-4.775146	mcg
-4.775237	mch
-4.775328	mci
-4.775420	mck
-4.775511	mcl
-4.775602	mcm
-4.775693	mcn
-4.775784	mco
-4.775875	mcp
-4.775966	mcq
-4.776058	mcr
-4.776149	mcs
-4.776240	mct
-4.776331	mcu
-4.776422	mcv
-4.776513	mcw
-4.776604	mcx
-4.776695	mda
-4.776786	mdb
-4.776877	mdc
-4.776967	mdd
-4.777058	mde
-4.777149	mdf
-4.777240	mdg
-4.777331	mdh
-4.777422	mdi
-4.777513	mdk
-4.777603	mdl
-4.777694	mdm
-4.777785	mdn
-4.777875	mdp
-4.777966	mdr
-4.778057	mds
-4.778148	mdt
-4.778238	mdu
-4.778329	mdw
-4.778419	mdx
-4.778510	mea
-4.778601	meb
-4.778691	mec
-4.778782	med
-4.778872	mee
-4.778963	mef
-4.779053	meg
-4.779143	meh
-4.779234	mei
-4.779324	mek
-4.779415	mel
-4.779505	mem
-4.779595	men
-4.779686	meo
-4.779776	mep
-4.779866	meq
-4.779957	mer
-4.780047	mes
-4.780137	met
-4.780227	meu
-4.780318	mev
-4.780408	mew
-4.780498	mex
-4.780588	mey
-4.780678	mez
-4.780768	mfa
-4.780858	mfb
-4.780949	mfc
-4.781039	mfd
-4.781129	mfe
-4.781219	mff
-4.781309	mfg
-4.781399	mfi
-4.781489	mfk
-4.781579	mfl
-4.781668	mfm
-4.781758	mfn
-4.781848	mfp
-4.781938	mfr
-4.782028	mfs
-4.782118	mft
-4.782208	mfw
-4.782297	mga
-4.782387	mgb
-4.782477	mgc
-4.782567	mgd
-4.782656	mgh
-4.782746	mgk
-4.782836	mgl
-4.782925	mgm
-4.783015	mgo
-4.783105	mgp
-4.783194	mgr
-4.783284	mgs
-4.783374	mgt
-4.783463	mgu
-4.783553	mha
-4.783642	mhc
-4.783732	mhd
-4.783821	mhe
-4.783911	mhi
-4.784000	mhl
-4.784089	mhm
-4.784179	mho
-4.784268	mhp
-4.784358	mhr
-4.784447	mhs
-4.784536	mhz
-4.784626	mia
-4.784715	mib
-4.784804	mic
-4.784893	mid
-4.784983	mie
-4.785072	mif
-4.785161	mig
-4.785250	mih
-4.785339	mii
-4.785429	mij
-4.785518	mik
-4.785607	mil
-4.785696	mim
-4.785785	min
-4.785874	mio
-4.785963	mip
-4.786052	mir
-4.786141	mis
-4.786230	mit
-4.786319	miu
-4.786408	mix
-4.786497	miz
-4.786586	mjd
-4.786675	mjf
-4.786764	mjm
-4.786853	mkc
-4.786941	mke
-4.787030	mkr
-4.787119	mks
-4.787208	mkt
-4.787297	mkv
-4.787385	mkx
-4.787474	mkz
-4.787563	mla
-4.787651	mlb
-4.787740	mlc
-4.787829	mld
-4.787917	mle
-4.788006	mlf
-4.788095	mlg
-4.788183	mlk
-4.788272	mll
-4.788360	mlm
-4.788449	mln
-4.788537	mlp
-4.788626	mlr
-4.788714	mls
-4.788803	mlt
-4.788891	mlw
-4.788980	mma
-4.789068	mmb
-4.789156	mmc
-4.789245	mmd
-4.789333	mme
-4.789422	mmf
-4.789510	mmg
-4.789598	mmh
-4.789686	mmi
-4.789775	mmj
-4.789863	mmk
-4.789951	mml
-4.790039	mmm
-4.790128	mmn
-4.790216	mmo
-4.790304	mmp
-4.790392	mmr
-4.790480	mms
-4.790568	mmt
-4.790656	mmu
-4.790744	mmw
-4.790832	mmx
-4.790920	mna
-4.791009	mnc
-4.791096	mnd
-4.791184	mne
-4.791272	mnf
-4.791360	mng
-4.791448	mnh
-4.791536	mni
-4.791624	mnl
-4.791712	mnm
-4.791800	mno
-4.791888	mnp
-4.791975	mnr
-4.792063	mns
-4.792151	mnt
-4.792239	mnu
-4.792327	moa
-4.792414	mob
-4.792502	moc
-4.792590	mod
-4.792677	moe
-4.792765	mof
-4.792853	mog
-4.792940	moh
-4.793028	moi
-4.793115	moj
-4.793203	mok
-4.793291	mol
-4.793378	mom
-4.793466	mon
-4.793553	moo
-4.793641	mop
-4.793728	moq
-4.793816	mor
-4.793903	mos
-4.793990	mot
-4.794078	mou
-4.794165	mov
-4.794252	mow
-4.794340	mox
-4.794427	moy
-4.794514	moz
-4.794602	mpa
-4.794689	mpb
-4.794776	mpc
-4.794863	mpd
-4.794951	mpe
-4.795038	mpf
-4.795125	mpg
-4.795212	mph
-4.795299	mpi
-4.795387	mpk
-4.795474	mpl
-4.795561	mpm
-4.795648	mpn
-4.795735	mpo
-4.795822	mpp
-4.795909	mpr
-4.795996	mps
-4.796083	mpt
-4.796170	mpu
-4.796257	mpv
-4.796344	mpw
-4.796431	mpx
-4.796518	mqm
-4.796604	mra
-4.796691	mrc
-4.796778	mrd
-4.796865	mre
-4.796952	mrf
-4.797039	mrg
-4.797125	mri
-4.797212	mrk
-4.797299	mrl
-4.797386	mrm
-4.797472	mrn
-4.797559	mro
-4.797646	mrp
-4.797732	mrr
-4.797819	mrs
-4.797906	mrt
-4.797992	mru
-4.798079	mrw
-4.798165	msa
-4.798252	msb
-4.798339	msc
-4.798425	msd
-4.798512	mse
-4.798598	msf
-4.798685	msg
-4.798771	msh
-4.798857	msi
-4.798944	msk
-4.799030	msl
-4.799117	msm
-4.799203	msn
-4.799289	mso
-4.799376	msp
-4.799462	msq
-4.799548	msr
-4.799635	mss
-4.799721	mst
-4.799807	msu
-4.799893	msv
-4.799980	msw
-4.800066	msx
-4.800152	msy
-4.800238	mta
-4.800324	mtb
-4.800410	mtc
-4.800496	mtd
-4.800583	mte
-4.800669	mtf
-4.800755	mtg
-4.800841	mth
-4.800927	mti
-4.801013	mtk
-4.801099	mtl
-4.801185	mtm
-4.801271	mtn
-4.801357	mto
-4.801443	mtp
-4.801528	mtr
-4.801614	mts
-4.801700	mtt
-4.801786	mtu
-4.801872	mtv
-4.801958	mtx
-4.802043	mua
-4.802129	muc
-4.802215	mud
-4.802301	muf
-4.802387	mug
-4.802472	muh
-4.802558	mui
-4.802644	muk
-4.802729	mul
-4.802815	mum
-4.802901	mun
-4.802986	mup
-4.803072	mur
-4.803157	mus
-4.803243	mut
-4.803329	muv
-4.803414	mux
-4.803500	muy
-4.803585	muz
-4.803671	mva
-4.803756	mvc
-4.803841	mvd
-4.803927	mvm
-4.804012	mvp
-4.804098	mvr
-4.804183	mvs
-4.804268	mvt
-4.804354	mwa
-4.804439	mwc
-4.804524	mwd
-4.804610	mwe
-4.804695	mwf
-4.804780	mwh
-4.804866	mwi
-4.804951	mwm
-4.805036	mwp
-4.805121	mwr
-4.805206	mws
-4.805292	mwt
-4.805377	mxm
-4.805462	mxn
-4.805547	mxr
-4.805632	mya
-4.805717	myb
-4.805802	myc
-4.805887	myo
-4.805972	myr
-4.806057	mys
-4.806142	myx
-4.806227	n's
-4.806312	n't
-4.806397	naa
-4.806482	nab
-4.806567	nac
-4.806652	nad
-4.806737	nae
-4.806822	naf
-4.806906	nag
-4.806991	nah
-4.807076	nai
-4.807161	naj
-4.807246	nak
-4.807330	nal
-4.807415	nam
-4.807500	nan
-4.807585	nao
-4.807669	nap
-4.807754	nar
-4.807839	nas
-4.807923	nat
-4.808008	nau
-4.808093	nav
-4.808177	naw
-4.808262	nay
-4.808346	naz
-4.808431	nba
-4.808515	nbc
-4.808600	nbd
-4.808684	nbe
-4.808769	nbi
-4.808853	nbk
-4.808938	nbl
-4.809022	nbn
-4.809107	nbp
-4.809191	nbr
-4.809276	nbs
-4.809360	nbt
-4.809444	nca
-4.809529	ncb
-4.809613	ncc
-4.809697	ncd
-4.809781	nce
-4.809866	ncf
-4.809950	ncg
-4.810034	nch
-4.810118	nci
-4.810203	ncl
-4.810287	ncm
-4.810371	nco
-4.810455	ncp
-4.810539	ncr
-4.810623	ncs
-4.810708	nct
-4.810792	ncw
-4.810876	nda
-4.810960	ndb
-4.811044	ndc
-4.811128	nde
-4.811212	ndf
-4.811296	ndi
-4.811380	ndm
-4.811464	ndo
-4.811548	ndp
-4.811632	ndr
-4.811716	nds
-4.811800	ndt
-4.811883	ndu
-4.811967	nea
-4.812051	neb
-4.812135	nec
-4.812219	ned
-4.812303	nee
-4.812386	nef
-4.812470	neg
-4.812554	neh
-4.812638	nei
-4.812721	nek
-4.812805	nel
-4.812889	nem
-4.812972	nen
-4.813056	neo
-4.813140	nep
-4.813223	ner
-4.813307	nes
-4.813390	net
-4.813474	neu
-4.813558	nev
-4.813641	new
-4.813725	nex
-4.813808	ney
-4.813892	nez
-4.813975	nfa
-4.814059	nfb
-4.814142	nfc
-4.814226	nff
-4.814309	nfi
-4.814392	nfl
-4.814476	nfo
-4.814559	nfp
-4.814642	nfr
-4.814726	nfs
-4.814809	nft
-4.814892	nfu
-4.814976	nfv
-4.815059	nga
-4.815142	ngc
-4.815225	nge
-4.815309	ngf
-4.815392	ngi
-4.815475	ngk
-4.815558	ngl
-4.815641	ngn
-4.815725	ngo
-4.815808	ngr
-4.815891	ngs
-4.815974	ngt
-4.816057	ngu
-4.816140	ngv
-4.816223	nha
-4.816306	nhc
-4.816389	nhe
-4.816472	nhi
-4.816555	nhk
-4.816638	nhl
-4.816721	nhm
-4.816804	nhp
-4.816887	nhs
-4.816970	nhu
-4.817053	nia
-4.817136	nib
-4.817218	nic
-4.817301	nid
-4.817384	nie
-4.817467	nif
-4.817550	nig
-4.817632	nih
-4.817715	nii
-4.817798	nij
-4.817881	nik
-4.817963	nil
-4.818046	nim
-4.818129	nin
-4.818211	nio
-4.818294	nip
-4.818377	nir
-4.818459	nis
-4.818542	nit
-4.818625	niu
-4.818707	niv
-4.818790	nix
-4.818872	nks
-4.818955	nkt
-4.819037	nku
-4.819120	nla
-4.819202	nlb
-4.819285	nlc
-4.819367	nld
-4.819450	nle
-4.819532	nlf
-4.819614	nlg
-4.819697	nli
-4.819779	nll
-4.819861	nlm
-4.819944	nln
-4.820026	nlp
-4.820108	nlr
-4.820191	nls
-4.820273	nlt
-4.820355	nly
-4.820438	nma
-4.820520	nmb
-4.820602	nmc
-4.820684	nmd
-4.820766	nme
-4.820849	nmf
-4.820931	nmi
-4.821013	nml
-4.821095	nmm
-4.821177	nmp
-4.821259	nmr
-4.821341	nms
-4.821423	nmt
-4.821505	nmu
-4.821587	nmw
-4.821669	nna
-4.821751	nnd
-4.821833	nne
-4.821915	nnn
-4.821997	nno
-4.822079	nns
-4.822161	nnt
-4.822243	nnw
-4.822325	noa
-4.822407	nob
-4.822489	noc
-4.822570	nod
-4.822652	noe
-4.822734	nof
-4.822816	nog
-4.822898	noh
-4.822979	noi
-4.823061	nok
-4.823143	nol
-4.823225	nom
-4.823306	non
-4.823388	noo
-4.823470	nop
-4.823551	nor
-4.823633	nos
-4.823715	not
-4.823796	nou
-4.823878	nov
-4.823959	now
-4.824041	nox
-4.824123	noy
-4.824204	npa
-4.824286	npb
-4.824367	npc
-4.824449	npd
-4.824530	npe
-4.824611	npf
-4.824693	npg
-4.824774	nph
-4.824856	npi
-4.824937	npk
-4.825019	npl
-4.825100	npm
-4.825181	npn
-4.825263	npo
-4.825344	npp
-4.825425	npr
-4.825507	nps
-4.825588	npt
-4.825669	npv
-4.825750	nra
-4.825832	nrb
-4.825913	nrc
-4.825994	nre
-4.826075	nrf
-4.826156	nrg
-4.826237	nri
-4.826319	nrj
-4.826400	nrk
-4.826481	nrl
-4.826562	nrm
-4.826643	nro
-4.826724	nrp
-4.826805	nrr
-4.826886	nrs
-4.826967	nrt
-4.827048	nrw
-4.827129	nrx
-4.827210	nsa
-4.827291	nsb
-4.827372	nsc
-4.827453	nsd
-4.827534	nse
-4.827615	nsf
-4.827696	nsg
-4.827776	nsi
-4.827857	nsk
-4.827938	nsl
-4.828019	nsm
-4.828100	nsn
-4.828181	nso
-4.828261	nsp
-4.828342	nsr
-4.828423	nss
-4.828504	nst
-4.828584	nsu
-4.828665	nsv
-4.828746	nsw
-4.828826	nsx
-4.828907	nta
-4.828988	ntb
-4.829068	ntc
-4.829149	ntd
-4.829230	nte
-4.829310	nth
-4.829391	nti
-4.829471	ntl
-4.829552	ntm
-4.829632	ntn
-4.829713	nto
-4.829793	ntp
-4.829874	ntr
-4.829954	nts
-4.830035	ntt
-4.830115	ntu
-4.830196	ntv
-4.830276	nty
-4.830356	nua
-4.830437	nub
-4.830517	nuc
-4.830597	nud
-4.830678	nue
-4.830758	nug
-4.830838	nuh
-4.830919	nui
-4.830999	nuj
-4.831079	nuk
-4.831159	nul
-4.831240	num
-4.831320	nun
-4.831400	nuo
-4.831480	nup
-4.831560	nur
-4.831640	nus
-4.831721	nut
-4.831801	nux
-4.831881	nva
-4.831961	nvc
-4.832041	nvm
-4.832121	nvq
-4.832201	nvr
-4.832281	nwa
-4.832361	nwc
-4.832441	nwe
-4.832521	nwi
-4.832601	nwo
-4.832681	nwp
-4.832761	nwr
-4.832841	nws
-4.832921	nwt
-4.833001	nxp
-4.833081	nxt
-4.833161	nya
-4.833240	nyc
-4.833320	nye
-4.833400	nyg
-4.833480	nyi
-4.833560	nyj
-4.833639	nyk
-4.833719	nym
-4.833799	nyo
-4.833879	nyp
-4.833958	nyr
-4.834038	nys
-4.834118	nyt
-4.834198	nyu
-4.834277	nyx
-4.834357	nyy
-4.834436	nzd
-4.834516	nzl
-4.834596	nzs
-4.834675	o's
-4.834755	oaa
-4.834834	oab
-4.834914	oac
-4.834994	oad
-4.835073	oaf
-4.835153	oag
-4.835232	oah
-4.835312	oai
-4.835391	oak
-4.835470	oal
-4.835550	oam
-4.835629	oan
-4.835709	oao
-4.835788	oap
-4.835867	oar
-4.835947	oas
-4.836026	oat
-4.836105	oau
-4.836185	oba
-4.836264	obb
-4.836343	obc
-4.836423	obd
-4.836502	obe
-4.836581	obi
-4.836660	obj
-4.836740	obl
-4.836819	obo
-4.836898	obp
-4.836977	obr
-4.837056	obs
-4.837135	obt
-4.837215	obu
-4.837294	obv
-4.837373	oby
-4.837452	oca
-4.837531	ocb
-4.837610	occ
-4.837689	ocd
-4.837768	oce
-4.837847	ocf
-4.837926	och
-4.838005	oci
-4.838084	ock
-4.838163	ocm
-4.838242	ocn
-4.838321	oco
-4.838400	ocp
-4.838479	ocr
-4.838558	ocs
-4.838636	oct
-4.838715	oda
-4.838794	odb
-4.838873	odc
-4.838952	odd
-4.839031	ode
-4.839109	odf
-4.839188	odi
-4.839267	odl
-4.839346	odm
-4.839424	odo
-4.839503	odp
-4.839582	ods
-4.839660	odt
-4.839739	odu
-4.839818	ody
-4.839896	oec
-4.839975	oed
-4.840054	oef
-4.840132	oel
-4.840211	oem
-4.840289	oen
-4.840368	oer
-4.840446	oes
-4.840525	ofa
-4.840604	ofc
-4.840682	ofe
-4.840760	off
-4.840839	ofi
-4.840917	ofl
-4.840996	ofm
-4.841074	ofo
-4.841153	ofr
-4.841231	ofs
-4.841309	oft
-4.841388	ofw
-4.841466	oga
-4.841545	ogc
-4.841623	oge
-4.841701	ogg
-4.841780	ogi
-4.841858	ogl
-4.841936	ogo
-4.842014	ogp
-4.842093	ogs
-4.842171	oha
-4.842249	ohc
-4.842327	ohe
-4.842405	ohh
-4.842484	ohi
-4.842562	ohk
-4.842640	ohl
-4.842718	ohm
-4.842796	ohn
-4.842874	oho
-4.842952	ohp
-4.843030	ohr
-4.843108	ohs
-4.843187	oht
-4.843265	ohv
-4.843343	oia
-4.843421	oic
-4.843499	oid
-4.843577	oie
-4.843655	oif
-4.843732	oig
-4.843810	oii
-4.843888	oil
-4.843966	oin
-4.844044	oir
-4.844122	ois
-4.844200	oit
-4.844278	oja
-4.844356	oji
-4.844433	ojo
-4.844511	ojt
-4.844589	oka
-4.844667	okc
-4.844745	oke
-4.844822	oki
-4.844900	okk
-4.844978	oko
-4.845055	okr
-4.845133	oks
-4.845211	oku
-4.845289	okw
-4.845366	ola
-4.845444	olb
-4.845521	olc
-4.845599	old
-4.845677	ole
-4.845754	olf
-4.845832	olg
-4.845909	oli
-4.845987	oll
-4.846064	olm
-4.846142	olo
-4.846219	olp
-4.846297	ols
-4.846374	olt
-4.846452	olu
-4.846529	olx
-4.846607	oly
-4.846684	oma
-4.846762	omb
-4.846839	omc
-4.846916	omd
-4.846994	ome
-4.847071	omf
-4.847148	omg
-4.847226	omi
-4.847303	oml
-4.847380	omm
-4.847458	omo
-4.847535	omp
-4.847612	omr
-4.847689	oms
-4.847767	omt
-4.847844	omv
-4.847921	omx
-4.847998	ona
-4.848075	onc
-4.848153	ond
-4.848230	one
-4.848307	onf
-4.848384	ong
-4.848461	oni
-4.848538	onl
-4.848615	onn
-4.848692	ono
-4.848769	onr
-4.848846	ons
-4.848923	ont
-4.849000	onu
-4.849077	ony
-4.849154	oob
-4.849231	ooc
-4.849308	ood
-4.849385	oof
-4.849462	ooh
-4.849539	ooi
-4.849616	ook
-4.849693	ool
-4.849770	oom
-4.849847	oon
-4.849923	ooo
-4.850000	oop
-4.850077	oor
-4.850154	oos
-4.850231	oot
-4.850308	opa
-4.850384	opc
-4.850461	opd
-4.850538	ope
-4.850614	opg
-4.850691	opi
-4.850768	opl
-4.850845	opm
-4.850921	opn
-4.850998	opo
-4.851075	opp
-4.851151	opr
-4.851228	ops
-4.851304	opt
-4.851381	opv
-4.851458	ora
-4.851534	orb
-4.851611	orc
-4.851687	ord
-4.851764	ore
-4.851840	orf
-4.851917	org
-4.851993	ori
-4.852070	ork
-4.852146	orl
-4.852223	orm
-4.852299	orn
-4.852375	oro
-4.852452	orp
-4.852528	orr
-4.852605	ors
-4.852681	ort
-4.852757	oru
-4.852834	orv
-4.852910	ory
-4.852986	osa
-4.853063	osb
-4.853139	osc
-4.853215	osd
-4.853291	ose
-4.853368	osf
-4.853444	osg
-4.853520	osh
-4.853596	osi
-4.853672	osk
-4.853749	osl
-4.853825	osm
-4.853901	osn
-4.853977	oso
-4.854053	osp
-4.854129	osr
-4.854205	oss
-4.854281	ost
-4.854357	osu
-4.854434	osw
-4.854510	osx
-4.854586	ota
-4.854662	otb
-4.854738	otc
-4.854814	otd
-4.854890	ote
-4.854965	otf
-4.855041	otg
-4.855117	oth
-4.855193	oti
-4.855269	otk
-4.855345	otl
-4.855421	otm
-4.855497	oto
-4.855573	otp
-4.855649	otr
-4.855724	ots
-4.855800	ott
-4.855876	otu
-4.855952	otv
-4.856028	otw
-4.856103	oua
-4.856179	oud
-4.856255	ouf
-4.856330	oui
-4.856406	oul
-4.856482	oum
-4.856558	oun
-4.856633	oup
-4.856709	our
-4.856785	ous
-4.856860	out
-4.856936	ova
-4.857011	ovc
-4.857087	ove
-4.857163	ovi
-4.857238	ovo
-4.857314	ovr
-4.857389	ovs
-4.857465	ovw
-4.857540	owa
-4.857616	owc
-4.857691	owd
-4.857767	owe
-4.857842	owi
-4.857918	owk
-4.857993	owl
-4.858068	own
-4.858144	owo
-4.858219	ows
-4.858295	owt
-4.858370	owu
-4.858445	oww
-4.858521	oxi
-4.858596	oxo
-4.858671	oxy
-4.858747	oya
-4.858822	oye
-4.858897	oyl
-4.858972	oyo
-4.859048	oyu
-4.859123	ozo
-4.859198	ozu
-4.859273	ozy
-4.859349	p's
-4.859424	paa
-4.859499	pab
-4.859574	pac
-4.859649	pad
-4.859724	pae
-4.859799	paf
-4.859875	pag
-4.859950	pah
-4.860025	pai
-4.860100	pak
-4.860175	pal
-4.860250	pam
-4.860325	pan
-4.860400	pao
-4.860475	pap
-4.860550	par
-4.860625	pas
-4.860700	pat
-4.860775	pau
-4.860850	pav
-4.860925	paw
-4.861000	pax
-4.861074	pay
-4.861149	paz
-4.861224	pba
-4.861299	pbb
-4.861374	pbc
-4.861449	pbe
-4.861524	pbf
-4.861598	pbg
-4.861673	pbi
-4.861748	pbj
-4.861823	pbk
-4.861897	pbl
-4.861972	pbm
-4.862047	pbn
-4.862122	pbo
-4.862196	pbp
-4.862271	pbr
-4.862346	pbs
-4.862420	pbt
-4.862495	pbx
-4.862570	pca
-4.862644	pcb
-4.862719	pcc
-4.862794	pcd
-4.862868	pce
-4.862943	pcf
-4.863017	pcg
-4.863092	pch
-4.863166	pci
-4.863241	pcl
-4.863315	pcm
-4.863390	pcn
-4.863464	pco
-4.863539	pcp
-4.863613	pcr
-4.863688	pcs
-4.863762	pct
-4.863837	pcu
-4.863911	pcv
-4.863985	pda
-4.864060	pdb
-4.864134	pdc
-4.864209	pdd
-4.864283	pde
-4.864357	pdf
-4.864432	pdg
-4.864506	pdh
-4.864580	pdi
-4.864654	pdk
-4.864729	pdl
-4.864803	pdm
-4.864877	pdn
-4.864951	pdo
-4.865026	pdp
-4.865100	pdq
-4.865174	pdr
-4.865248	pds
-4.865322	pdt
-4.865397	pdu
-4.865471	pdw
-4.865545	pdx
-4.865619	pea
-4.865693	pec
-4.865767	ped
-4.865841	pee
-4.865915	pef
-4.865989	peg
-4.866063	peh
-4.866137	pei
-4.866211	pek
-4.866285	pel
-4.866359	pem
-4.866433	pen
-4.866507	peo
-4.866581	pep
-4.866655	per
-4.866729	pes
-4.866803	pet
-4.866877	peu
-4.866951	pew
-4.867025	pex
-4.867099	pey
-4.867173	pez
-4.867246	pfa
-4.867320	pfc
-4.867394	pfd
-4.867468	pfe
-4.867542	pff
-4.867615	pfg
-4.867689	pfi
-4.867763	pfl
-4.867837	pfm
-4.867910	pfp
-4.867984	pfr
-4.868058	pfs
-4.868131	pft
-4.868205	pfw
-4.868279	pga
-4.868352	pgc
-4.868426	pgd
-4.868500	pge
-4.868573	pgf
-4.868647	pgh
-4.868721	pgi
-4.868794	pgl
-4.868868	pgm
-4.868941	pgn
-4.869015	pgp
-4.869088	pgr
-4.869162	pgs
-4.869235	pgt
-4.869309	pha
-4.869382	phb
-4.869456	phc
-4.869529	phd
-4.869603	phe
-4.869676	phi
-4.869750	phl
-4.869823	phm
-4.869896	phn
-4.869970	pho
-4.870043	php
-4.870116	phr
-4.870190	phs
-4.870263	pht
-4.870336	phu
-4.870410	phx
-4.870483	phy
-4.870556	pia
-4.870630	pib
-4.870703	pic
-4.870776	pid
-4.870849	pie
-4.870922	pif
-4.870996	pig
-4.871069	pih
-4.871142	pii
-4.871215	pik
-4.871288	pil
-4.871362	pim
-4.871435	pin
-4.871508	pio
-4.871581	pip
-4.871654	pir
-4.871727	pis
-4.871800	pit
-4.871873	piu
-4.871946	piv
-4.872019	pix
-4.872092	piz
-4.872165	pjm
-4.872238	pjs
-4.872311	pka
-4.872384	pkb
-4.872457	pkc
-4.872530	pkd
-4.872603	pkg
-4.872676	pki
-4.872749	pkk
-4.872822	pkm
-4.872895	pkp
-4.872968	pkr
-4.873040	pks
-4.873113	pkt
-4.873186	pku
-4.873259	pla
-4.873332	plc
-4.873405	pld
-4.873477	ple
-4.873550	plf
-4.873623	pli
-4.873696	pll
-4.873768	plm
-4.873841	pln
-4.873914	plo
-4.873987	plp
-4.874059	plr
-4.874132	pls
-4.874205	plt
-4.874277	plu
-4.874350	plx
-4.874423	ply
-4.874495	plz
-4.874568	pma
-4.874640	pmb
-4.874713	pmc
-4.874785	pmd
-4.874858	pme
-4.874931	pmf
-4.875003	pmg
-4.875076	pmh
-4.875148	pmi
-4.875221	pml
-4.875293	pmm
-4.875366	pmn
-4.875438	pmo
-4.875511	pmp
-4.875583	pmr
-4.875655	pms
-4.875728	pmt
-4.875800	pmu
-4.875873	pmv
-4.875945	pna
-4.876017	pnb
-4.876090	pnc
-4.876162	pnd
-4.876234	pne
-4.876307	pnf
-4.876379	png
-4.876451	pnh
-4.876524	pnl
-4.876596	pnm
-4.876668	pnp
-4.876740	pnr
-4.876813	pns
-4.876885	pnw
-4.876957	pny
-4.877029	poa
-4.877101	pob
-4.877174	poc
-4.877246	pod
-4.877318	poe
-4.877390	pof
-4.877462	pog
-4.877534	poh
-4.877606	poi
-4.877678	pok
-4.877750	pol
-4.877823	pom
-4.877895	pon
-4.877967	poo
-4.878039	pop
-4.878111	por
-4.878183	pos
-4.878255	pot
-4.878327	pou
-4.878399	pov
-4.878471	pow
-4.878543	pox
-4.878614	poy
-4.878686	poz
-4.878758	ppa
-4.878830	ppb
-4.878902	ppc
-4.878974	ppd
-4.879046	ppe
-4.879118	ppf
-4.879189	ppg
-4.879261	pph
-4.879333	ppi
-4.879405	ppk
-4.879477	ppl
-4.879548	ppm
-4.879620	ppn
-4.879692	ppo
-4.879764	ppp
-4.879835	ppr
-4.879907	pps
-4.879979	ppt
-4.880051	ppu
-4.880122	ppv
-4.880194	ppy
-4.880266	pra
-4.880337	prb
-4.880409	prc
-4.880481	prd
-4.880552	pre
-4.880624	prf
-4.880695	prg
-4.880767	pri
-4.880838	prk
-4.880910	prl
-4.880982	prm
-4.881053	prn
-4.881125	pro
-4.881196	prp
-4.881268	prr
-4.881339	prs
-4.881411	prt
-4.881482	pru
-4.881553	prv
-4.881625	pry
-4.881696	psa
-4.881768	psb
-4.881839	psc
-4.881911	psd
-4.881982	pse
-4.882053	psf
-4.882125	psg
-4.882196	psh
-4.882267	psi
-4.882339	psk
-4.882410	psl
-4.882481	psm
-4.882553	psn
-4.882624	pso
-4.882695	psp
-4.882766	psr
-4.882838	pss
-4.882909	pst
-4.882980	psu
-4.883051	psv
-4.883122	psw
-4.883194	psx
-4.883265	psy
-4.883336	pta
-4.883407	ptb
-4.883478	ptc
-4.883549	pte
-4.883620	ptg
-4.883691	pth
-4.883763	pti
-4.883834	ptl
-4.883905	ptm
-4.883976	ptn
-4.884047	pto
-4.884118	ptp
-4.884189	ptr
-4.884260	pts
-4.884331	ptt
-4.884402	ptu
-4.884473	ptv
-4.884544	ptw
-4.884615	ptx
-4.884686	pty
-4.884757	pua
-4.884827	pub
-4.884898	puc
-4.884969	pud
-4.885040	pue
-4.885111	puf
-4.885182	pug
-4.885253	puh
-4.885323	pui
-4.885394	puk
-4.885465	pul
-4.885536	pum
-4.885607	pun
-4.885677	pup
-4.885748	pur
-4.885819	pus
-4.885890	put
-4.885960	puy
-4.886031	pva
-4.886102	pvc
-4.886173	pvd
-4.886243	pve
-4.886314	pvi
-4.886385	pvm
-4.886455	pvp
-4.886526	pvr
-4.886596	pvs
-4.886667	pvt
-4.886738	pvv
-4.886808	pwa
-4.886879	pwc
-4.886949	pwd
-4.887020	pwe
-4.887090	pwg
-4.887161	pwi
-4.887232	pwm
-4.887302	pwn
-4.887373	pwo
-4.887443	pwp
-4.887514	pwr
-4.887584	pws
-4.887654	pxe
-4.887725	pya
-4.887795	pyd
-4.887866	pye
-4.887936	pym
-4.888007	pyo
-4.888077	pyp
-4.888147	pyr
-4.888218	pyx
-4.888288	q's
-4.888358	qal
-4.888429	qam
-4.888499	qas
-4.888569	qat
-4.888640	qbe
-4.888710	qbr
-4.888780	qbs
-4.888850	qca
-4.888921	qcd
-4.888991	qcs
-4.889061	qds
-4.889131	qed
-4.889201	qft
-4.889272	qhd
-4.889342	qid
-4.889412	qin
-4.889482	qiu
-4.889552	qld
-4.889622	qms
-4.889693	qna
-4.889763	qnd
-4.889833	qnx
-4.889903	qol
-4.889973	qom
-4.890043	qos
-4.890113	qpr
-4.890183	qps
-4.890253	qqq
-4.890323	qrs
-4.890393	qrt
-4.890463	qsl
-4.890533	qso
-4.890603	qsr
-4.890673	qst
-4.890743	qtc
-4.890813	qtl
-4.890883	qtr
-4.890953	qts
-4.891023	qty
-4.891093	qua
-4.891162	que
-4.891232	qui
-4.891302	qun
-4.891372	quo
-4.891442	qur
-4.891512	qut
-4.891582	quy
-4.891651	qvc
-4.891721	r's
-4.891791	raa
-4.891861	rab
-4.891930	rac
-4.892000	rad
-4.892070	rae
-4.892140	raf
-4.892209	rag
-4.892279	rah
-4.892349	rai
-4.892418	raj
-4.892488	rak
-4.892558	ral
-4.892627	ram
-4.892697	ran
-4.892767	rao
-4.892836	rap
-4.892906	raq
-4.892976	rar
-4.893045	ras
-4.893115	rat
-4.893184	rau
-4.893254	rav
-4.893323	raw
-4.893393	rax
-4.893462	ray
-4.893532	raz
-4.893601	rba
-4.893671	rbb
-4.893740	rbc
-4.893810	rbd
-4.893879	rbe
-4.893949	rbf
-4.894018	rbg
-4.894087	rbi
-4.894157	rbk
-4.894226	rbl
-4.894296	rbp
-4.894365	rbr
-4.894434	rbs
-4.894504	rbt
-4.894573	rca
-4.894642	rcb
-4.894712	rcc
-4.894781	rcd
-4.894850	rce
-4.894920	rcf
-4.894989	rch
-4.895058	rci
-4.895127	rcl
-4.895197	rcm
-4.895266	rcn
-4.895335	rcp
-4.895404	rcr
-4.895473	rcs
-4.895543	rct
-4.895612	rcv
-4.895681	rcw
-4.895750	rda
-4.895819	rdb
-4.895888	rdc
-4.895958	rdd
-4.896027	rdf
-4.896096	rdg
-4.896165	rdi
-4.896234	rdj
-4.896303	rdm
-4.896372	rdo
-4.896441	rdp
-4.896510	rdr
-4.896579	rds
-4.896648	rdt
-4.896717	rdu
-4.896786	rdx
-4.896855	rea
-4.896924	reb
-4.896993	rec
-4.897062	red
-4.897131	ree
-4.897200	ref
-4.897269	reg
-4.897338	reh
-4.897406	rei
-4.897475	rej
-4.897544	rek
-4.897613	rel
-4.897682	rem
-4.897751	ren
-4.897820	reo
-4.897888	rep
-4.897957	req
-4.898026	rer
-4.898095	res
-4.898163	ret
-4.898232	reu
-4.898301	rev
-4.898370	rew
-4.898438	rex
-4.898507	rey
-4.898576	rez
-4.898645	rfa
-4.898713	rfc
-4.898782	rfd
-4.898851	rfe
-4.898919	rff
-4.898988	rfi
-4.899056	rfk
-4.899125	rfl
-4.899194	rfm
-4.899262	rfp
-4.899331	rfq
-4.899399	rfr
-4.899468	rfs
-4.899537	rft
-4.899605	rfu
-4.899674	rga
-4.899742	rgb
-4.899811	rgc
-4.899879	rgd
-4.899948	rgm
-4.900016	rgn
-4.900085	rgs
-4.900153	rgt
-4.900221	rgv
-4.900290	rha
-4.900358	rhb
-4.900427	rhc
-4.900495	rhd
-4.900563	rhe
-4.900632	rhi
-4.900700	rhm
-4.900769	rho
-4.900837	rhp
-4.900905	rhs
-4.900974	rht
-4.901042	rhu
-4.901110	ria
-4.901178	rib
-4.901247	ric
-4.901315	rid
-4.901383	rie
-4.901452	rif
-4.901520	rig
-4.901588	rih
-4.901656	rii
-4.901724	rik
-4.901793	ril
-4.901861	rim
-4.901929	rin
-4.901997	rio
-4.902065	rip
-4.902133	rir
-4.902202	ris
-4.902270	rit
-4.902338	riu
-4.902406	riv
-4.902474	rix
-4.902542	riz
-4.902610	rjd
-4.902678	rjr
-4.902746	rkc
-4.902814	rko
-4.902882	rks
-4.902950	rla
-4.903018	rlc
-4.903086	rld
-4.903154	rle
-4.903222	rlm
-4.903290	rls
-4.903358	rlx
-4.903426	rly
-4.903494	rma
-4.903562	rmb
-4.903630	rmc
-4.903698	rmd
-4.903766	rme
-4.903833	rmg
-4.903901	rmi
-4.903969	rml
-4.904037	rmm
-4.904105	rmn
-4.904173	rmp
-4.904240	rmr
-4.904308	rms
-4.904376	rmt
-4.904444	rmx
-4.904512	rmy
-4.904579	rna
-4.904647	rnb
-4.904715	rnc
-4.904783	rnd
-4.904850	rne
-4.904918	rng
-4.904986	rnn
-4.905053	rnp
-4.905121	rnr
-4.905189	rns
-4.905256	roa
-4.905324	rob
-4.905392	roc
-4.905459	rod
-4.905527	roe
-4.905594	rof
-4.905662	rog
-4.905730	roh
-4.905797	roi
-4.905865	rok
-4.905932	rol
-4.906000	rom
-4.906067	ron
-4.906135	roo
-4.906202	rop
-4.906270	ror
-4.906337	ros
-4.906405	rot
-4.906472	rou
-4.906540	rov
-4.906607	row
-4.906675	rox
-4.906742	roy
-4.906809	roz
-4.906877	rpa
-4.906944	rpc
-4.907012	rpd
-4.907079	rpe
-4.907146	rpf
-4.907214	rpg
-4.907281	rph
-4.907348	rpi
-4.907416	rpk
-4.907483	rpl
-4.907550	rpm
-4.907618	rpn
-4.907685	rpo
-4.907752	rpp
-4.907819	rpr
-4.907887	rps
-4.907954	rpt
-4.908021	rpw
-4.908088	rra
-4.908155	rrb
-4.908223	rrc
-4.908290	rre
-4.908357	rri
-4.908424	rrl
-4.908491	rrp
-4.908558	rrr
-4.908626	rrs
-4.908693	rrt
-4.908760	rsa
-4.908827	rsb
-4.908894	rsc
-4.908961	rsd
-4.909028	rse
-4.909095	rsf
-4.909162	rsi
-4.909229	rsk
-4.909296	rsl
-4.909363	rsm
-4.909430	rsn
-4.909497	rso
-4.909564	rsp
-4.909631	rsr
-4.909698	rss
-4.909765	rst
-4.909832	rsu
-4.909899	rsv
-4.909966	rsx
-4.910033	rta
-4.910100	rtb
-4.910167	rtc
-4.910234	rtd
-4.910300	rte
-4.910367	rtf
-4.910434	rtg
-4.910501	rth
-4.910568	rti
-4.910635	rtk
-4.910702	rtl
-4.910768	rtm
-4.910835	rtn
-4.910902	rto
-4.910969	rtp
-4.911035	rtr
-4.911102	rts
-4.911169	rtt
-4.911236	rtu
-4.911302	rtv
-4.911369	rtw
-4.911436	rtx
-4.911502	rtz
-4.911569	rua
-4.911636	rub
-4.911702	ruc
-4.911769	rud
-4.911836	rue
-4.911902	ruf
-4.911969	rug
-4.912036	ruh
-4.912102	rui
-4.912169	ruk
-4.912235	rul
-4.912302	rum
-4.912368	run
-4.912435	ruo
-4.912501	rup
-4.912568	rur
-4.912635	rus
-4.912701	rut
-4.912768	rux
-4.912834	ruy
-4.912900	ruz
-4.912967	rva
-4.913033	rvd
-4.913100	rvm
-4.913166	rvn
-4.913233	rvp
-4.913299	rvr
-4.913365	rvs
-4.913432	rwa
-4.913498	rwb
-4.913565	rwc
-4.913631	rwd
-4.913697	rwe
-4.913764	rws
-4.913830	rwy
-4.913896	rya
-4.913963	rye
-4.914029	rym
-4.914095	ryn
-4.914162	ryo
-4.914228	rys
-4.914294	ryu
-4.914360	rza
-4.914427	s's
-4.914493	saa
-4.914559	sab
-4.914625	sac
-4.914691	sad
-4.914758	sae
-4.914824	saf
-4.914890	sag
-4.914956	sah
-4.915022	sai
-4.915088	saj
-4.915154	sak
-4.915221	sal
-4.915287	sam
-4.915353	san
-4.915419	sao
-4.915485	sap
-4.915551	sar
-4.915617	sas
-4.915683	sat
-4.915749	sau
-4.915815	sav
-4.915881	saw
-4.915947	sax
-4.916013	say
-4.916079	saz
-4.916145	sba
-4.916211	sbb
-4.916277	sbc
-4.916343	sbd
-4.916409	sbe
-4.916475	sbf
-4.916541	sbg
-4.916607	sbi
-4.916673	sbk
-4.916739	sbl
-4.916804	sbm
-4.916870	sbn
-4.916936	sbo
-4.917002	sbp
-4.917068	sbr
-4.917134	sbs
-4.917199	sbt
-4.917265	sbu
-4.917331	sbw
-4.917397	sby
-4.917463	sca
-4.917528	scb
-4.917594	scc
-4.917660	scd
-4.917726	sce
-4.917791	scf
-4.917857	scg
-4.917923	sch
-4.917989	sci
-4.918054	scl
-4.918120	scm
-4.918186	scn
-4.918251	sco
-4.918317	scp
-4.918382	scr
-4.918448	scs
-4.918514	sct
-4.918579	scu
-4.918645	scv
-4.918711	scw
-4.918776	sda
-4.918842	sdb
-4.918907	sdc
-4.918973	sdd
-4.919038	sde
-4.919104	sdf
-4.919169	sdg
-4.919235	sdh
-4.919300	sdi
-4.919366	sdk
-4.919431	sdl
-4.919497	sdm
-4.919562	sdn
-4.919628	sdo
-4.919693	sdp
-4.919759	sdr
-4.919824	sds
-4.919889	sdt
-4.919955	sdu
-4.920020	sdv
-4.920086	sea
-4.920151	seb
-4.920216	sec
-4.920282	sed
-4.920347	see
-4.920412	sef
-4.920478	seg
-4.920543	seh
-4.920608	sei
-4.920674	sej
-4.920739	sek
-4.920804	sel
-4.920869	sem
-4.920935	sen
-4.921000	seo
-4.921065	sep
-4.921130	seq
-4.921196	ser
-4.921261	ses
-4.921326	set
-4.921391	seu
-4.921456	sev
-4.921521	sew
-4.921587	sex
-4.921652	sey
-4.921717	sez
-4.921782	sfa
-4.921847	sfb
-4.921912	sfc
-4.921977	sfd
-4.922042	sfe
-4.922108	sff
-4.922173	sfg
-4.922238	sfh
-4.922303	sfi
-4.922368	sfl
-4.922433	sfm
-4.922498	sfn
-4.922563	sfo
-4.922628	sfp
-4.922693	sfr
-4.922758	sfs
-4.922823	sft
-4.922888	sfu
-4.922953	sfv
-4.923018	sfw
-4.923083	sfx
-4.923147	sga
-4.923212	sgb
-4.923277	sgc
-4.923342	sgd
-4.923407	sge
-4.923472	sgf
-4.923537	sgh
-4.923602	sgi
-4.923666	sgl
-4.923731	sgm
-4.923796	sgn
-4.923861	sgp
-4.923926	sgr
-4.923991	sgs
-4.924055	sgt
-4.924120	sgu
-4.924185	sgx
-4.924250	sha
-4.924314	shb
-4.924379	shc
-4.924444	shd
-4.924509	she
-4.924573	shg
-4.924638	shh
-4.924703	shi
-4.924767	shl
-4.924832	shm
-4.924897	sho
-4.924961	shp
-4.925026	shr
-4.925091	shs
-4.925155	sht
-4.925220	shu
-4.925284	shv
-4.925349	shy
-4.925414	sia
-4.925478	sib
-4.925543	sic
-4.925607	sid
-4.925672	sie
-4.925736	sif
-4.925801	sig
-4.925865	sih
-4.925930	sii
-4.925994	sik
-4.926059	sil
-4.926123	sim
-4.926188	sin
-4.926252	sio
-4.926317	sip
-4.926381	sir
-4.926446	sis
-4.926510	sit
-4.926575	siu
-4.926639	siv
-4.926703	six
-4.926768	siz
-4.926832	sja
-4.926896	sjc
-4.926961	sjp
-4.927025	sjr
-4.927089	sjs
-4.927154	sju
-4.927218	sjw
-4.927282	ska
-4.927347	skb
-4.927411	skc
-4.927475	skd
-4.927540	skf
-4.927604	skg
-4.927668	ski
-4.927732	skl
-4.927797	skn
-4.927861	skr
-4.927925	sks
-4.927989	skt
-4.928053	sku
-4.928118	sky
-4.928182	sla
-4.928246	slb
-4.928310	slc
-4.928374	sld
-4.928438	sle
-4.928502	slf
-4.928567	slg
-4.928631	sli
-4.928695	slk
-4.928759	sll
-4.928823	slm
-4.928887	sln
-4.928951	slo
-4.929015	slp
-4.929079	slr
-4.929143	sls
-4.929207	slt
-4.929271	slu
-4.929335	slv
-4.929399	slx
-4.929463	sly
-4.929527	sma
-4.929591	smb
-4.929655	smc
-4.929719	smd
-4.929783	sme
-4.929847	smf
-4.929911	smg
-4.929975	smh
-4.930039	smi
-4.930103	smk
-4.930166	sml
-4.930230	smm
-4.930294	smn
-4.930358	smo
-4.930422	smp
-4.930486	smr
-4.930549	sms
-4.930613	smt
-4.930677	smu
-4.930741	smw
-4.930805	smx
-4.930868	sna
-4.930932	snb
-4.930996	snc
-4.931060	snd
-4.931123	sne
-4.931187	snf
-4.931251	sng
-4.931315	sni
-4.931378	snk
-4.931442	snl
-4.931506	snm
-4.931569	snn
-4.931633	sno
-4.931697	snp
-4.931760	snr
-4.931824	sns
-4.931888	snt
-4.931951	snu
-4.932015	sny
-4.932078	soa
-4.932142	sob
-4.932206	soc
-4.932269	sod
-4.932333	soe
-4.932396	sof
-4.932460	sog
-4.932523	soh
-4.932587	soi
-4.932650	sok
-4.932714	sol
-4.932777	som
-4.932841	son
-4.932904	soo
-4.932968	sop
-4.933031	sor
-4.933095	sos
-4.933158	sot
-4.933222	sou
-4.933285	sov
-4.933349	sow
-4.933412	sox
-4.933475	soy
-4.933539	soz
-4.933602	spa
-4.933665	spb
-4.933729	spc
-4.933792	spd
-4.933855	spe
-4.933919	spf
-4.933982	spg
-4.934045	sph
-4.934109	spi
-4.934172	spj
-4.934235	spk
-4.934299	spl
-4.934362	spm
-4.934425	spn
-4.934488	spo
-4.934552	spp
-4.934615	spr
-4.934678	sps
-4.934741	spt
-4.934804	spu
-4.934868	spv
-4.934931	spx
-4.934994	spy
-4.935057	sqa
-4.935120	sql
-4.935184	sqm
-4.935247	sqn
-4.935310	sqq
-4.935373	sra
-4.935436	srb
-4.935499	src
-4.935562	srd
-4.935625	sre
-4.935688	srf
-4.935751	srg
-4.935814	srh
-4.935878	sri
-4.935941	srk
-4.936004	srl
-4.936067	srm
-4.936130	sro
-4.936193	srp
-4.936256	srr
-4.936319	srs
-4.936382	srt
-4.936445	sru
-4.936507	srv
-4.936570	srw
-4.936633	srx
-4.936696	sry
-4.936759	ssa
-4.936822	ssb
-4.936885	ssc
-4.936948	ssd
-4.937011	sse
-4.937074	ssf
-4.937137	ssg
-4.937199	ssh
-4.937262	ssi
-4.937325	ssj
-4.937388	ssk
-4.937451	ssl
-4.937514	ssm
-4.937576	ssn
-4.937639	sso
-4.937702	ssp
-4.937765	ssr
-4.937827	sss
-4.937890	sst
-4.937953	ssu
-4.938016	ssv
-4.938078	ssw
-4.938141	ssx
-4.938204	ssy
-4.938267	sta
-4.938329	stb
-4.938392	stc
-4.938455	std
-4.938517	ste
-4.938580	stf
-4.938643	stg
-4.938705	sth
-4.938768	sti
-4.938830	stk
-4.938893	stl
-4.938956	stm
-4.939018	stn
-4.939081	sto
-4.939143	stp
-4.939206	str
-4.939269	sts
-4.939331	stt
-4.939394	stu
-4.939456	stv
-4.939519	stw
-4.939581	stx
-4.939644	sty
-4.939706	sua
-4.939769	sub
-4.939831	suc
-4.939894	sud
-4.939956	sue
-4.940018	suf
-4.940081	sug
-4.940143	suh
-4.940206	sui
-4.940268	suk
-4.940331	sul
-4.940393	sum
-4.940455	sun
-4.940518	suo
-4.940580	sup
-4.940642	sur
-4.940705	sus
-4.940767	sut
-4.940829	suu
-4.940892	suv
-4.940954	sux
-4.941016	suz
-4.941079	sva
-4.941141	svc
-4.941203	svd
-4.941266	sve
-4.941328	svg
-4.941390	svi
-4.941452	svm
-4.941515	svn
-4.941577	svo
-4.941639	svp
-4.941701	svr
-4.941763	svs
-4.941826	svt
-4.941888	svu
-4.941950	swa
-4.942012	swb
-4.942074	swc
-4.942136	swd
-4.942199	swe
-4.942261	swf
-4.942323	swg
-4.942385	swi
-4.942447	swl
-4.942509	swm
-4.942571	swp
-4.942633	swr
-4.942695	sws
-4.942757	swt
-4.942819	swv
-4.942881	sya
-4.942943	syd
-4.943005	sye
-4.943067	syl
-4.943129	sym
-4.943191	syn
-4.943253	syr
-4.943315	sys
-4.943377	sza
-4.943439	sze
-4.943501	t's
-4.943563	taa
-4.943625	tab
-4.943687	tac
-4.943749	tad
-4.943811	tae
-4.943873	taf
-4.943935	tag
-4.943997	tah
-4.944058	tai
-4.944120	taj
-4.944182	tak
-4.944244	tal
-4.944306	tam
-4.944368	tan
-4.944429	tao
-4.944491	tap
-4.944553	taq
-4.944615	tar
-4.944677	tas
-4.944738	tat
-4.944800	tau
-4.944862	tav
-4.944924	taw
-4.944985	tax
-4.945047	tay
-4.945109	taz
-4.945171	tba
-4.945232	tbb
-4.945294	tbc
-4.945356	tbd
-4.945417	tbe
-4.945479	tbf
-4.945541	tbg
-4.945602	tbh
-4.945664	tbi
-4.945726	tbk
-4.945787	tbl
-4.945849	tbm
-4.945910	tbn
-4.945972	tbo
-4.946034	tbp
-4.946095	tbr
-4.946157	tbs
-4.946218	tbt
-4.946280	tca
-4.946341	tcb
-4.946403	tcc
-4.946465	tcd
-4.946526	tce
-4.946588	tcf
-4.946649	tcg
-4.946711	tch
-4.946772	tci
-4.946834	tck
-4.946895	tcl
-4.946956	tcm
-4.947018	tcn
-4.947079	tco
-4.947141	tcp
-4.947202	tcr
-4.947264	tcs
-4.947325	tct
-4.947386	tcu
-4.947448	tcw
-4.947509	tda
-4.947571	tdb
-4.947632	tdc
-4.947693	tdd
-4.947755	tde
-4.947816	tdf
-4.947877	tdi
-4.947939	tdk
-4.948000	tdl
-4.948061	tdm
-4.948122	tdo
-4.948184	tdp
-4.948245	tdr
-4.948306	tds
-4.948368	tdt
-4.948429	tdy
-4.948490	tea
-4.948551	teb
-4.948613	tec
-4.948674	ted
-4.948735	tee
-4.948796	tef
-4.948857	teg
-4.948919	teh
-4.948980	tei
-4.949041	tej
-4.949102	tek
-4.949163	tel
-4.949224	tem
-4.949285	ten
-4.949347	teo
-4.949408	tep
-4.949469	teq
-4.949530	ter
-4.949591	tes
-4.949652	tet
-4.949713	teu
-4.949774	tev
-4.949835	tew
-4.949896	tex
-4.949957	tey
-4.950018	tez
-4.950079	tfa
-4.950140	tfc
-4.950201	tff
-4.950262	tfg
-4.950323	tfi
-4.950384	tfl
-4.950445	tfm
-4.950506	tfo
-4.950567	tfp
-4.950628	tfr
-4.950689	tfs
-4.950750	tft
-4.950811	tfw
-4.950872	tga
-4.950933	tgc
-4.950994	tge
-4.951054	tgf
-4.951115	tgi
-4.951176	tgm
-4.951237	tgp
-4.951298	tgr
-4.951359	tgs
-4.951420	tgt
-4.951480	tgv
-4.951541	tha
-4.951602	thb
-4.951663	thc
-4.951724	thd
-4.951784	the
-4.951845	thf
-4.951906	thg
-4.951967	thi
-4.952027	thk
-4.952088	thl
-4.952149	thm
-4.952210	thn
-4.952270	tho
-4.952331	thp
-4.952392	thq
-4.952452	thr
-4.952513	ths
-4.952574	tht
-4.952634	thu
-4.952695	thw
-4.952756	thx
-4.952816	thy
-4.952877	thz
-4.952938	tia
-4.952998	tib
-4.953059	tic
-4.953119	tid
-4.953180	tie
-4.953240	tif
-4.953301	tig
-4.953362	tii
-4.953422	tik
-4.953483	til
-4.953543	tim
-4.953604	tin
-4.953664	tio
-4.953725	tip
-4.953785	tir
-4.953846	tis
-4.953906	tit
-4.953967	tiu
-4.954027	tiv
-4.954088	tix
-4.954148	tiz
-4.954209	tje
-4.954269	tji
-4.954329	tjs
